{"version": "0.5.2", "metadata": {"date": {"year": 2024, "month": 6, "day": 30, "hour": 3, "minute": 40, "second": 2}, "loudness": -15.96281909942627, "gain": 0.8200766315244605, "name": null, "modeled_by": null, "gear_type": null, "gear_make": null, "gear_model": null, "tone_type": null}, "architecture": "WaveNet", "config": {"layers": [{"input_size": 1, "condition_size": 1, "head_size": 8, "channels": 16, "kernel_size": 3, "dilations": [1, 2, 4, 8, 16, 32, 64, 128, 256, 512], "activation": "Tanh", "gated": false, "head_bias": false}, {"input_size": 16, "condition_size": 1, "head_size": 1, "channels": 8, "kernel_size": 3, "dilations": [1, 2, 4, 8, 16, 32, 64, 128, 256, 512], "activation": "Tanh", "gated": false, "head_bias": true}], "head": null, "head_scale": 0.02}, "weights": [-0.22842228412628174, 0.6014244556427002, -0.6732016205787659, -0.7649619579315186, -0.3691070079803467, 0.3214125633239746, 0.17353829741477966, 0.8479053974151611, -0.08687125146389008, 0.41815364360809326, -0.20603255927562714, -0.26004981994628906, -1.023789644241333, -0.6298659443855286, -0.2960868775844574, -0.14400546252727509, 0.03958109766244888, 0.09289322793483734, -0.033339038491249084, -0.19317586719989777, -0.04424724727869034, 0.07460784912109375, 0.10972654074430466, 0.21138377487659454, 0.023664668202400208, 0.15180665254592896, 0.23321594297885895, -0.0885881707072258, 0.032261721789836884, 0.05250818282365799, -0.021529756486415863, -0.004199524410068989, -0.18518243730068207, -0.09922808408737183, -0.1259179413318634, -0.029651351273059845, 0.008154809474945068, -0.019100790843367577, -0.041684575378894806, 0.02110186405479908, 0.17445822060108185, 0.06277205049991608, 0.09811017662286758, -0.26284366846084595, -0.19274669885635376, -0.1087120994925499, 0.21757063269615173, 0.17437919974327087, -0.031283870339393616, 0.09640185534954071, 0.16139495372772217, 0.1585077941417694, 0.20065489411354065, 0.1270216852426529, 0.14751096069812775, 0.05264805629849434, 0.13009673357009888, -0.0654589906334877, 0.02275487780570984, 0.013589070178568363, 0.1002790704369545, 0.0027823394630104303, -0.19665825366973877, -0.025585617870092392, 0.20758211612701416, -0.1464134156703949, -0.1959734559059143, -0.21616651117801666, 0.13889899849891663, 0.3435239791870117, 0.13682128489017487, -0.09901045262813568, -0.14359557628631592, 0.3673151731491089, 0.07672228664159775, -0.07845279574394226, 0.27810174226760864, -0.17096106708049774, -0.18356101214885712, -0.3307785987854004, -0.07632354646921158, 0.3437942862510681, -0.06946020573377609, -0.09310977160930634, -0.1052466407418251, -0.2741016149520874, 0.025577668100595474, 0.13627077639102936, 0.2986777126789093, -0.08494716882705688, -0.09996658563613892, -0.1720113456249237, 0.16138862073421478, 0.2660856246948242, 0.093805693089962, -0.1486470103263855, -0.13904058933258057, 0.2645043730735779, -0.168040469288826, -0.30769801139831543, 0.3878359794616699, 0.050081174820661545, -0.2631189525127411, 0.21250957250595093, -0.1845385581254959, -0.2054005116224289, 0.12691143155097961, -0.1687670201063156, -0.2183140367269516, 0.1327739655971527, -0.12636272609233856, 0.18584366142749786, 0.10113345086574554, -0.2746959924697876, 0.07361654937267303, -0.2526576519012451, 0.45075637102127075, 0.12110588699579239, 0.1384199857711792, -0.4438153803348541, -0.042881324887275696, 0.12724845111370087, -0.5560663938522339, -0.03486640006303787, 0.0054763443768024445, -0.5382862091064453, -0.11498656868934631, -0.20006631314754486, 0.42126938700675964, -0.0356181301176548, -0.10096385329961777, 0.33396729826927185, -0.001953798346221447, -0.12758344411849976, 0.589823305606842, 0.09175639599561691, 0.2289375215768814, -0.2700631022453308, 0.1455356329679489, -0.05778015777468681, 0.6041427254676819, 0.17717130482196808, 0.2806612253189087, -0.44818276166915894, -0.18606425821781158, 0.08317501097917557, -0.35931986570358276, -0.07073111087083817, 0.04585397616028786, -0.6002328991889954, -0.24423561990261078, -0.0022996454499661922, -0.511786937713623, -0.022259192541241646, 0.212772935628891, -0.5929812788963318, 0.00988024938851595, 0.0285553727298975, -0.232948899269104, -0.12896157801151276, -0.07773443311452866, -0.14940394461154938, -0.13352054357528687, -0.205849751830101, 0.002450548578053713, 0.007782693486660719, 0.02816460281610489, 0.03829373046755791, -0.13803543150424957, 0.08604363352060318, 0.11697648465633392, -0.0642656534910202, 0.20933368802070618, 0.01911075972020626, -0.15040378272533417, -5.464607966132462e-05, 0.0009036172414198518, -0.04567388817667961, 0.0016854985151439905, 0.00376496696844697, -0.10537887364625931, -0.12440723925828934, 0.1164526492357254, 0.04668786749243736, 0.1624527871608734, 0.01270220335572958, -0.08557675033807755, -0.10242175310850143, -0.08110087364912033, 0.10661633312702179, 0.20228999853134155, 0.07256197929382324, -0.1250097155570984, 0.07174916565418243, -0.14667284488677979, -0.12080113589763641, 0.011990433558821678, 0.03887179493904114, -0.08876403421163559, 0.09144335240125656, -0.005147585645318031, 0.08699969947338104, -0.020388144999742508, -0.1223369762301445, -0.0937112346291542, 0.18460753560066223, -0.14057916402816772, 0.3084593117237091, -0.1379038393497467, -0.17452682554721832, -0.023894749581813812, 0.1810969114303589, 0.16952618956565857, -0.10983192920684814, -0.21202611923217773, -0.13004222512245178, -0.02989569865167141, -0.2863270342350006, -0.03602941706776619, -0.033853206783533096, -0.1993478685617447, 0.012191066518425941, 0.14541029930114746, 0.2048836052417755, 0.016095494851469994, -0.026937246322631836, -0.013523013330996037, -0.20289276540279388, -0.13284814357757568, 0.19402073323726654, 0.15551212430000305, 0.03784286975860596, -0.17442399263381958, 0.008074820041656494, 0.1914624124765396, 0.11333227157592773, 0.20956745743751526, -0.19437626004219055, -0.253451406955719, -0.08754059672355652, 0.15054233372211456, -0.07461459189653397, -0.18014205992221832, 0.10258204489946365, -0.14231307804584503, -0.2949965298175812, 0.18387435376644135, -0.33069533109664917, -0.15040437877178192, 0.05808832123875618, -0.26904433965682983, -0.11298508942127228, 0.21183155477046967, -0.025966372340917587, 0.09001967310905457, -0.039477039128541946, 0.01582496054470539, 0.0425165556371212, -0.13566091656684875, -0.17188934981822968, 0.00397940119728446, 0.17749063670635223, 0.13848958909511566, 0.02213774248957634, -0.031094135716557503, 0.014627665281295776, -0.13412918150424957, -0.0431891568005085, 0.20113445818424225, -0.028632238507270813, -0.13914932310581207, -0.14027175307273865, -0.05522460490465164, 0.09759081900119781, -0.1001986488699913, -0.2084508091211319, 0.23703457415103912, -0.1569289118051529, 0.07683394104242325, 0.1291978657245636, 0.12440063059329987, -0.0572299063205719, -0.05682912468910217, 0.02719101496040821, 0.09745478630065918, 0.1891312450170517, 0.033853575587272644, -0.01939276233315468, -0.08298177272081375, 0.0917087197303772, -0.15060272812843323, -0.004593926481902599, 0.10681132227182388, -0.09874819964170456, -0.1229734942317009, -0.02559286169707775, 0.007524693850427866, -0.1919814646244049, 0.13747186958789825, -0.11685529351234436, -0.13917532563209534, 0.10366429388523102, 0.020576536655426025, -0.12124107033014297, 0.17907553911209106, -0.20006081461906433, 0.015624349005520344, -0.04123988747596741, 0.19206774234771729, -0.009324878454208374, -0.02594761922955513, -0.15588508546352386, 0.04997863247990608, 0.04032306373119354, -0.08294764906167984, 0.09336969256401062, 0.03395730257034302, -0.11596415191888809, 0.06963464617729187, -0.09408467262983322, 0.13525602221488953, 0.002073547337204218, -0.191059872508049, -0.02947860024869442, 0.1033048927783966, 0.0357171893119812, 0.22239626944065094, 0.022071124985814095, 0.20934011042118073, -0.08956453204154968, -0.010852329432964325, -0.2424178421497345, 0.2629052996635437, 0.07692063599824905, 0.010467487387359142, -0.052625007927417755, 0.13631317019462585, 0.2668350040912628, 0.016959426924586296, 0.13464079797267914, 0.05889809876680374, -0.19083330035209656, 0.11309138685464859, 0.17443498969078064, -0.2229459285736084, 0.12833642959594727, 0.17680954933166504, -0.037073180079460144, -0.07878617942333221, 0.10398649424314499, -0.02473497949540615, 0.021399741992354393, -0.15551763772964478, 0.10610764473676682, 0.14641407132148743, 0.3709535598754883, 0.003125787479802966, -0.01683780550956726, -0.4159430265426636, -0.03236136585474014, -0.018367746844887733, -0.46163424849510193, -0.18764999508857727, 0.19245988130569458, -0.2199603170156479, 0.08559509366750717, 0.2029428482055664, 0.18404492735862732, -0.03223976492881775, -0.11527451127767563, 0.10907698422670364, -0.05078788474202156, -0.1422189176082611, 0.2533394396305084, -0.06914470344781876, -0.1606469452381134, -0.15252509713172913, 0.03220273554325104, 0.14658954739570618, 0.4219903349876404, 0.18222837150096893, -0.13795353472232819, -0.24096748232841492, 0.06586472690105438, 0.1319466084241867, -0.1431376338005066, 0.028798984363675117, 0.20354770123958588, -0.37602555751800537, -0.0037317145615816116, 0.09178721159696579, -0.3530048727989197, -0.15251882374286652, -0.002895466983318329, -0.4083798825740814, 0.04514751955866814, 0.18746840953826904, -0.12290479987859726, 0.0764654353260994, 0.13349033892154694, 0.28634196519851685, 0.1191009134054184, 0.13569550216197968, 0.18494991958141327, 0.13605140149593353, -0.17241328954696655, 0.08436751365661621, 0.031904686242341995, 0.016160432249307632, 0.028797293081879616, -0.15910233557224274, 0.04853181168437004, 0.08587952703237534, -0.05786784365773201, -0.021551279351115227, -0.006869991309940815, 0.025322813540697098, -0.11649062484502792, -0.04756367579102516, 0.059781283140182495, -0.029279902577400208, -0.03199359029531479, 0.08583272248506546, 0.0018996320432052016, 0.07972811907529831, -0.16605117917060852, 0.10547065734863281, -0.0662069097161293, -9.764249625732191e-06, -0.033833932131528854, -0.1387227177619934, -0.009108453057706356, 0.2124529629945755, -0.014158074744045734, -0.1527566760778427, 0.048751864582300186, -0.02800903655588627, -0.19197067618370056, 0.1356528401374817, -0.1840549260377884, -0.21624642610549927, -0.06994321197271347, -0.059615861624479294, 0.04003405570983887, -0.04942989721894264, 0.22115062177181244, -0.01952899433672428, 0.04922521486878395, 0.2142670601606369, 0.0034473559353500605, 0.12101444602012634, -0.018172279000282288, 0.08966902643442154, 0.1053301990032196, -0.02394619956612587, 0.15626786649227142, -0.021214602515101433, 0.1467834711074829, -0.07608996331691742, -0.06868008524179459, -0.06909790635108948, -0.015971826389431953, 0.007836097851395607, -0.1868266612291336, 0.006696551572531462, 0.09744568914175034, 0.024343734607100487, -0.1283932626247406, 0.04495780169963837, -0.12616980075836182, 0.019003666937351227, 0.17031316459178925, 0.1038583442568779, 0.037254076451063156, 0.13006745278835297, -0.23792386054992676, -0.1831691712141037, 0.08618325740098953, -0.015469427220523357, 0.10838472098112106, -0.10906211286783218, 0.018339570611715317, -0.06620336323976517, 0.06528452783823013, 0.06602106988430023, 0.15335072576999664, 0.05937833711504936, 0.15723484754562378, 0.04429839178919792, -0.0713936910033226, 0.03283071517944336, 0.05160478502511978, 0.04281781613826752, -0.09366734325885773, 0.1345709264278412, -0.21021035313606262, -0.2687379717826843, 0.03617795929312706, 0.0884244441986084, 0.27368098497390747, -0.2444770485162735, 0.1015380471944809, -0.07877815514802933, 0.17971926927566528, 0.10134671628475189, -0.23206110298633575, 0.13846355676651, 0.037824179977178574, -0.19118951261043549, 0.14405134320259094, -0.06329233199357986, 0.24721382558345795, -0.12628173828125, -0.021340692415833473, 0.20689189434051514, -0.0038253343664109707, -0.15520258247852325, 0.16743741929531097, -0.008877520449459553, 0.003880358999595046, -0.14123712480068207, -0.04469180852174759, -0.11722712963819504, 0.04748702049255371, -0.18146927654743195, -0.05660855025053024, -0.022365059703588486, 0.0462501086294651, -0.042542293667793274, -0.2052573263645172, 0.2599312663078308, 0.1297587901353836, -0.26229217648506165, -0.022406192496418953, -0.12618638575077057, -0.15369956195354462, 0.056087661534547806, -0.11581072956323624, -0.19638507068157196, 0.12453441321849823, -0.09830160439014435, 0.019342955201864243, 0.19556623697280884, 0.18398113548755646, 0.05801178887486458, 0.09952279925346375, -0.09492029994726181, -0.07250335812568665, -0.03782263398170471, 0.15309330821037292, -0.05440307408571243, -0.15132015943527222, 0.12623800337314606, -0.00906914472579956, 0.015709318220615387, -0.028572602197527885, 0.03546798229217529, -0.058629684150218964, 0.06783545017242432, -0.06582941859960556, -0.118083156645298, -0.05487892031669617, -0.031854238361120224, 0.2568407952785492, -0.05722479522228241, 0.05354069545865059, -0.01864292286336422, -0.009076056070625782, 0.13590390980243683, 0.012864074669778347, 0.056315381079912186, 0.012030012905597687, -0.01945074275135994, -0.06757078319787979, 0.058105263859033585, 0.09512627124786377, -0.08042164146900177, -0.0657796710729599, 0.03657208010554314, 0.11250099539756775, 0.04242872819304466, -0.13178235292434692, -0.14624834060668945, 0.11730898916721344, -0.02392818033695221, -0.08998888731002808, 0.09841019660234451, 0.030944056808948517, 0.0918932855129242, 0.08413790911436081, -0.1485539674758911, -0.07290700078010559, 0.0922165960073471, 0.12117113173007965, 0.08580480515956879, -0.1481095850467682, -0.07393655925989151, 0.18448753654956818, 0.322239488363266, 0.06323127448558807, -0.18523237109184265, 0.1330508142709732, -0.16774849593639374, 0.06895723193883896, 0.11832103878259659, -0.1347474604845047, 0.014815198257565498, -0.24900959432125092, 0.0029886069241911173, 0.05988684296607971, -0.14334550499916077, -0.07326234877109528, 0.027105528861284256, -0.2556817829608917, 0.117812380194664, 0.18978969752788544, 0.15645888447761536, -0.09987388551235199, 0.015578885562717915, -0.18534621596336365, -0.008564961142838001, 0.19344523549079895, 0.21418941020965576, -0.20644180476665497, -0.1028095930814743, 0.09841565042734146, 0.07002156227827072, -0.0828852728009224, 0.0607687272131443, -0.07518669217824936, 0.026882339268922806, 0.22607646882534027, -0.020318040624260902, -0.05106206610798836, 0.22960355877876282, -0.10788444429636002, -0.12479379028081894, -0.1173010990023613, -0.17755389213562012, 0.1434708535671234, -0.23490935564041138, -0.11525127291679382, 0.03512242063879967, -0.04124600440263748, -0.13303717970848083, 0.07256975024938583, -0.0262709129601717, 0.15955956280231476, -0.05965040624141693, 0.02137957699596882, 0.12110315263271332, -0.001681479741819203, 0.15767531096935272, -0.08045773208141327, -0.08484567701816559, -0.11521615833044052, -0.008790899999439716, 0.09151062369346619, -0.1169753149151802, 0.15397973358631134, -0.07443047314882278, -0.09257694333791733, 0.06013891473412514, -0.17393624782562256, 0.07730989903211594, 0.14525841176509857, -0.03733190894126892, 0.06551848351955414, -0.07287091761827469, 0.06967929005622864, -0.09575244784355164, 0.0007053552544675767, 0.00263057928532362, 0.06639768183231354, 0.058975398540496826, 0.12674321234226227, 0.0410582609474659, 0.04309379681944847, 0.16449972987174988, 0.017909646034240723, 0.1698378026485443, -0.03787264972925186, 0.024688301607966423, 0.014448885805904865, 0.10415813326835632, 0.023817850276827812, -0.14840637147426605, -0.06033032760024071, -0.035158123821020126, 0.20501776039600372, -0.022387554869055748, 0.071390800178051, -0.12162840366363525, 0.10320544987916946, -0.1521017998456955, 0.06452956050634384, 0.1271633356809616, -0.26750949025154114, 0.2380782514810562, 0.05031689628958702, -0.21615952253341675, 0.2582041025161743, -0.09780186414718628, 0.1865696907043457, -0.303547203540802, -0.052741460502147675, 0.2660827934741974, -0.07133429497480392, -0.11948671191930771, 0.25823089480400085, -0.22437690198421478, -0.09839235246181488, -0.2854173183441162, -0.030427703633904457, 0.07777827978134155, 0.12635798752307892, -0.206978440284729, 0.005063555669039488, -0.0606117844581604, 0.3150865137577057, 0.14036519825458527, -0.2481013536453247, 0.19671101868152618, -0.04262235760688782, -0.24745559692382812, 0.24045947194099426, 0.16556183993816376, -0.27459898591041565, 0.2929539978504181, -0.044317565858364105, -0.17353717982769012, 0.3230118453502655, 0.00017304399807471782, -0.14965283870697021, 0.041607294231653214, 0.12692560255527496, 0.051912032067775726, 0.2009848803281784, -0.01132107526063919, -0.05773693695664406, -0.3313677906990051, 0.13975541293621063, 0.0704757422208786, 0.1638244092464447, -0.07275181263685226, 0.07605191320180893, 0.30205631256103516, -0.21774820983409882, -0.06366325169801712, 0.1538165807723999, -0.2611446678638458, 0.05603587254881859, -0.08785132318735123, 0.27514412999153137, 0.09113536775112152, -0.02414385974407196, -0.04230951890349388, 0.1609092652797699, -0.265958696603775, 0.04036302492022514, 0.006474024150520563, 0.24109938740730286, -0.3045511841773987, 0.18618157505989075, -0.15439695119857788, 0.0431787334382534, -0.08088891953229904, 0.3129008710384369, -0.26882413029670715, -0.0792391300201416, 0.2617722749710083, -0.26751458644866943, 0.02899577096104622, 0.2823648452758789, -0.05019781365990639, -0.14043201506137848, 0.3480393588542938, -0.22811217606067657, 0.09999382495880127, 0.058249782770872116, -0.2768353521823883, 0.1298048049211502, 0.13319925963878632, 0.06766053289175034, -0.13830986618995667, -0.03798671066761017, -0.15854476392269135, -0.027599405497312546, 0.10882256180047989, 0.011254779994487762, -0.013193254359066486, -0.0122868362814188, 0.09311839938163757, 0.05361900106072426, -0.014865453355014324, -0.05579139664769173, -0.15498816967010498, -0.16506363451480865, -0.04729657992720604, -0.012790047563612461, 0.3883954882621765, -0.23292477428913116, 0.9174445867538452, -0.7060960531234741, -0.06976684182882309, 0.9996523857116699, 1.0086661577224731, -0.6476849913597107, 0.12162165343761444, 0.1517353057861328, -0.4531119167804718, -0.3368382453918457, 0.33347800374031067, -0.768726110458374, 0.13913224637508392, 0.5673621892929077, 0.030942415818572044, 0.13517996668815613, 0.18514777719974518, 0.2601676881313324, 0.23913538455963135, -0.10130337625741959, 0.18822509050369263, 0.032684676349163055, -0.17278483510017395, 0.07199819386005402, -0.10056277364492416, 0.09737025201320648, 0.025553632527589798, 0.14042088389396667, -0.09314565360546112, -0.7299355268478394, -0.10271157324314117, -0.16431762278079987, -0.303281307220459, 0.11128406971693039, 0.008465503342449665, -0.16647805273532867, -0.15747348964214325, 0.3052137494087219, 0.060040432959795, -0.06518969684839249, 0.04958004504442215, -0.013289162889122963, 0.07022946327924728, -0.04635064676403999, 0.3130829334259033, 0.09894610196352005, -0.10807415097951889, 0.0515337772667408, -0.015186961740255356, 0.06579753011465073, -0.08360449224710464, -0.1639919877052307, 0.098606176674366, -0.10199131071567535, 0.09896861761808395, -0.06954455375671387, 0.12359477579593658, -0.28986677527427673, 0.0747479647397995, 0.2155621349811554, 0.03448258340358734, 0.0868513211607933, 0.05769648775458336, -0.11076051741838455, -0.19800308346748352, -0.1288192868232727, -0.04722171276807785, -0.10247527807950974, -0.05789028853178024, 0.11107134073972702, -0.05058857798576355, -0.16808398067951202, 0.04652783274650574, -0.009717226028442383, 0.11490592360496521, 0.24234755337238312, -0.0564705915749073, -0.06389053910970688, -0.216591939330101, -0.15789684653282166, -0.2800818681716919, 0.13456274569034576, 0.24103683233261108, 0.08126573264598846, 0.16338306665420532, -0.10814758390188217, 0.16398821771144867, 0.20540344715118408, -0.28278565406799316, 0.12821073830127716, -0.10207734256982803, 0.09416832029819489, -0.5524051189422607, -0.5965830087661743, -0.24358434975147247, -0.15983903408050537, 0.18959738314151764, 0.03445707634091377, 0.3599179685115814, 0.3511851131916046, 0.3351845145225525, 0.30635127425193787, 0.13752985000610352, 9.784662688616663e-05, -0.01956939324736595, -0.12507019937038422, -0.035823263227939606, -0.19270791113376617, 0.21198023855686188, 0.06083650141954422, 0.03375856950879097, 0.9395219087600708, 0.20013736188411713, -0.016587162390351295, -0.33251073956489563, -0.10978919267654419, 0.17987191677093506, -0.46067121624946594, 0.11662007868289948, -0.29443883895874023, -0.3001704514026642, 0.03768880292773247, 0.643731415271759, -0.28434789180755615, -0.8684079647064209, -0.2707987129688263, 0.21278078854084015, 0.04788073152303696, 0.4546603560447693, -0.16208724677562714, -0.13526315987110138, 0.23425833880901337, 0.3118513226509094, 0.2429434359073639, 0.10806043446063995, -0.20623521506786346, 0.23608560860157013, -0.2380107343196869, 0.1175069808959961, -0.18853364884853363, 0.062141332775354385, -0.10413938015699387, -0.25514665246009827, -0.45483866333961487, -0.36811894178390503, -0.29318779706954956, 0.21312327682971954, -0.17500199377536774, -0.19135773181915283, 0.5359801650047302, -0.10521122813224792, -0.3205896019935608, 0.39502009749412537, -0.03150121495127678, -0.0678674578666687, -0.12108930200338364, 0.34634894132614136, -0.147172212600708, -0.265209436416626, 0.19696557521820068, 0.14266109466552734, -0.2406044900417328, -0.2461676150560379, 0.05917505547404289, 0.19689708948135376, -0.126170352101326, 0.11399717628955841, -0.05012129992246628, 0.1847836971282959, -0.07899711281061172, 0.3237745463848114, 0.10138775408267975, -0.1994517594575882, -0.11616203188896179, -0.0532996840775013, 0.19602422416210175, -0.2897566854953766, 0.006339243613183498, -0.028835441917181015, -0.2318698763847351, 0.09316534548997879, 0.17161811888217926, 0.19422632455825806, -0.11948545277118683, -0.12728174030780792, -0.20117613673210144, 0.0010998797370120883, 0.06132753565907478, 0.08604986220598221, 0.2236688882112503, -0.05755947530269623, -0.21775513887405396, -0.06071193516254425, -0.10249314457178116, 0.0185672789812088, -0.29339608550071716, -0.08180097490549088, 0.05520384758710861, 0.061942581087350845, -0.27228647470474243, 0.17924724519252777, -0.13357798755168915, -0.27593404054641724, 0.2456756979227066, -0.12941090762615204, -0.14118975400924683, -0.05066715553402901, -0.10728223621845245, 0.0163099505007267, -0.0017930632457137108, 0.16566412150859833, -0.21018685400485992, -0.007957307621836662, 0.1560293585062027, 0.19939716160297394, -0.11726899445056915, -0.003325696336105466, 0.1107272282242775, 0.13022442162036896, -0.11035065352916718, -0.1276988536119461, -0.19281597435474396, -0.16573837399482727, 0.005825272295624018, -0.16667942702770233, -0.05619406700134277, -0.08519190549850464, 0.1791868805885315, 0.2721688449382782, 0.15473489463329315, 0.17344090342521667, -0.1824812889099121, -0.06934291869401932, -0.14060689508914948, 0.026314036920666695, -0.14068982005119324, -0.373868465423584, 0.0030211128760129213, -0.14792148768901825, 0.14088594913482666, 0.0853804498910904, -0.1594090461730957, 0.23953129351139069, 0.23866191506385803, 0.29150232672691345, 0.15697960555553436, -0.17467954754829407, 0.16683907806873322, 0.019713135436177254, -0.2256159782409668, 0.2602066099643707, -0.04253184050321579, 0.027205972000956535, 0.05864860489964485, 0.3574846684932709, 0.0299405325204134, 0.2865262031555176, 0.11068857461214066, -0.18909922242164612, 0.1476365327835083, -0.012222916819155216, -0.01619596965610981, -0.21402329206466675, -0.034585628658533096, -0.09985144436359406, 0.023151598870754242, 0.01529874000698328, 0.24281875789165497, 0.199043869972229, 0.025146130472421646, 0.09792196750640869, -0.2863103449344635, 0.25416848063468933, -0.34914737939834595, -0.16178563237190247, -0.030115166679024696, 0.005720470566302538, -0.015071618370711803, 0.01900092512369156, -0.23204323649406433, 0.09828272461891174, 0.05278699845075607, 0.01866782456636429, 0.15899227559566498, 0.023607531562447548, -0.0570455938577652, 0.20020054280757904, -0.02065429277718067, -0.2264374941587448, 0.06537256389856339, -0.08732128888368607, 0.21500957012176514, -0.17280487716197968, -0.061589863151311874, 0.1343616545200348, -0.2661720812320709, -0.0928780734539032, 0.002345098415389657, -0.18186679482460022, -0.11557306349277496, -0.11327116936445236, 0.295497328042984, 0.011998812668025494, -0.10290937125682831, 0.09236068278551102, -0.05185677111148834, 0.31073564291000366, 0.1606130748987198, 0.010872379876673222, -0.278481125831604, -0.17909583449363708, 0.11206603795289993, -0.041997045278549194, -0.09274233132600784, 0.09720226377248764, 0.00846084300428629, -0.3006339967250824, -0.12043210864067078, 0.17074142396450043, -0.27029162645339966, -0.16796985268592834, 0.07718168944120407, -0.21545878052711487, 0.06263887137174606, 0.048846323043107986, -0.15212242305278778, 0.07528965175151825, -0.06361104547977448, -0.07815955579280853, 0.14002400636672974, -0.07060645520687103, 0.20766212046146393, -0.04156261309981346, -0.21147988736629486, 0.33164095878601074, -0.11858797818422318, 0.07312288135290146, -0.29086360335350037, -0.09568502008914948, 0.13182403147220612, 0.03938763961195946, -0.031009120866656303, 0.23084932565689087, -0.12433934956789017, -0.012810733169317245, -0.07882149517536163, 0.16624391078948975, -0.3761102259159088, 0.06639273464679718, -0.19356131553649902, -0.09255753457546234, -0.08332017064094543, 0.3988146483898163, -0.18602177500724792, -0.1564749777317047, 0.12155985832214355, 0.023519890382885933, -0.03513640910387039, -0.44856175780296326, -0.09847018867731094, 0.1680983006954193, 0.12401600182056427, 0.032058458775281906, -0.18251752853393555, -0.03430211544036865, -0.057578153908252716, 0.10985244810581207, -0.10474187135696411, -0.17989136278629303, 0.20901265740394592, -0.0026913092005997896, -0.16823962330818176, 0.11190342158079147, -0.01935943029820919, -0.062455613166093826, 0.07606852799654007, -0.0493953563272953, -0.023738762363791466, -0.07777085155248642, 0.15282972157001495, 0.31819942593574524, -0.17062067985534668, 0.005100990179926157, -0.13543707132339478, 0.15989162027835846, 0.07575056701898575, 0.2706529200077057, -0.15415945649147034, -0.06638431549072266, 0.1131550669670105, -0.21763810515403748, 0.2439303696155548, 0.17283444106578827, -0.22777818143367767, 0.34510016441345215, 0.09105441719293594, 0.0640835091471672, -0.08360829949378967, -0.05268390476703644, 0.42142239212989807, 0.33538538217544556, -0.09803067892789841, -0.1201060488820076, -0.1498185694217682, -0.20733754336833954, 0.5117844939231873, -0.17923478782176971, -0.020078329369425774, -0.0981578379869461, -0.029503867030143738, 0.07042740285396576, 0.0963142067193985, -0.12393256276845932, 0.004623106215149164, -0.20107074081897736, 0.2510974705219269, 0.1173986941576004, -0.2125660628080368, 0.12591737508773804, 0.10263945907354355, -0.3572046756744385, -0.05292796343564987, 0.07850069552659988, -0.185746431350708, -0.1899728775024414, -0.11775744706392288, 0.30033043026924133, -0.09471488744020462, 0.061044417321681976, 0.4840703308582306, -0.3054310381412506, -0.26704680919647217, 0.2818882167339325, -0.07188595086336136, 0.23311547935009003, -0.1504393070936203, 0.10940632969141006, -0.08159960806369781, -0.3079736530780792, 0.1882813423871994, 0.2101966142654419, -0.20222175121307373, -0.02687910757958889, -0.14790940284729004, -0.040292177349328995, -0.1833726316690445, -0.026636216789484024, 0.1691620945930481, 0.1460776925086975, -0.031077418476343155, -0.013393637724220753, -0.2666451334953308, -0.03796912729740143, 0.29555073380470276, 0.0711931362748146, -0.020949222147464752, -0.13008657097816467, 0.11625780165195465, -0.17066827416419983, 0.0207799281924963, 0.19589683413505554, 0.025655705481767654, -0.1719205230474472, 0.19632117450237274, 0.19100849330425262, -0.009010747075080872, 0.09611272066831589, 0.08248212933540344, -0.2397032529115677, 0.04675862193107605, -0.15273980796337128, -0.23649555444717407, -0.13042625784873962, -0.2593582570552826, 0.1806115210056305, -0.03525902330875397, 0.003421116853132844, 0.28252360224723816, 0.01570283994078636, -0.11665338277816772, 0.020004453137516975, 0.008198967203497887, 0.19220924377441406, -0.038323625922203064, -0.1254911571741104, 0.1316981464624405, -0.10684021562337875, -0.1273452341556549, 0.14320020377635956, 0.0786357969045639, 0.06379052996635437, 0.02699981816112995, -0.014941730536520481, -0.04772926867008209, 0.050940461456775665, 0.03804364427924156, 0.35242098569869995, -0.3528008460998535, -0.229949951171875, 0.017204562202095985, 0.024385277181863785, 0.19135311245918274, 0.1295112818479538, 0.3447704017162323, 0.059793248772621155, -0.03702748566865921, -0.17634235322475433, 0.027269255369901657, 0.04490179941058159, 0.019953709095716476, -0.10844705998897552, -0.1322220414876938, 0.07739979773759842, 0.03774746134877205, -0.12615904211997986, -0.0485481321811676, 0.11381816864013672, 0.09572328627109528, 0.14074884355068207, 0.062416672706604004, 0.06057139113545418, -0.16299594938755035, -0.06746997684240341, 0.059586890041828156, -0.12032566964626312, -0.005277944728732109, 0.20629830658435822, -0.17927755415439606, -0.04725239425897598, -0.11692891269922256, 0.31322020292282104, 0.11761557310819626, -0.23703259229660034, -0.052453745156526566, -0.03310355171561241, -0.07766871154308319, 0.14772513508796692, 0.09890177100896835, 0.07262023538351059, 0.09049859642982483, 0.02893146313726902, 0.2034214437007904, -0.17027272284030914, -0.07075493037700653, 0.15895996987819672, -0.591559112071991, -0.03196757659316063, 0.28399398922920227, -0.22348961234092712, 0.11874674260616302, 0.092678003013134, 0.5679869055747986, -0.20533262193202972, 0.3262718617916107, -0.1563183069229126, 0.0002590856747701764, -0.06212250888347626, 0.25918048620224, 0.07065527886152267, 0.13206036388874054, 0.07535238564014435, 0.15887229144573212, 0.07256029546260834, 0.18825410306453705, -0.025063224136829376, -0.1855713129043579, -0.07264310866594315, -0.06656378507614136, 0.02109302394092083, -0.04831862077116966, -0.21695072948932648, 0.07033194601535797, -0.12236909568309784, 0.14029499888420105, -0.03818323463201523, 0.20847758650779724, -0.13019055128097534, 0.07077097147703171, -0.037010569125413895, -0.04989999160170555, 0.04827813804149628, -0.08099553734064102, 0.2353983223438263, 0.22275489568710327, -0.03640595078468323, 0.024572433903813362, -0.03263663873076439, 0.20921841263771057, -0.011126977391541004, 0.1358168125152588, 0.16080930829048157, -0.008938743732869625, 0.0998956561088562, 0.43831872940063477, 0.3935115933418274, 0.004410974215716124, 0.18743018805980682, -0.09842510521411896, -0.02326531894505024, -0.6670945286750793, -0.27397456765174866, 0.0010324158938601613, 0.0900135487318039, 0.02948683500289917, 0.10509105026721954, -0.2203875631093979, 0.15966488420963287, -0.049555350095033646, -0.05807569995522499, 0.02327720820903778, 0.1347728818655014, 0.10258670896291733, 0.16198575496673584, 0.04887092858552933, -0.04219751060009003, -0.14647266268730164, -0.14243736863136292, 0.165430948138237, -0.026237893849611282, 0.06712916493415833, 0.19803912937641144, 0.006901232525706291, -0.16682840883731842, 0.007316980976611376, 0.03923936188220978, 0.019590573385357857, -0.18297787010669708, -0.12387572973966599, -0.07187996059656143, 0.07691562175750732, 0.27528834342956543, -0.13549835979938507, -0.16086791455745697, -0.0662049800157547, -0.2529763877391815, -0.2985802888870239, -0.22572557628154755, 0.16523459553718567, -0.04348153620958328, -0.1490093171596527, 0.07272925227880478, 0.047913048416376114, 0.1682341992855072, 0.05926937609910965, -0.02125609666109085, -0.11397652328014374, 0.06498727202415466, -0.22104713320732117, 0.1682201474905014, 0.0948001816868782, 0.14547115564346313, -0.000335234944941476, 0.08121593296527863, -0.14815247058868408, 0.10369960963726044, -0.04169163107872009, -0.12120521813631058, 0.1276838481426239, -0.06300980597734451, 0.04030214995145798, 0.14796455204486847, -0.04482650011777878, 0.09476249665021896, 0.07725567370653152, 0.02445456013083458, 0.10474327206611633, 0.07844451069831848, -0.060322824865579605, 0.005427588243037462, -0.11728706955909729, 0.21482856571674347, 0.1174376830458641, 0.1112421452999115, -0.21306444704532623, -0.22102336585521698, -0.30805033445358276, 0.4146086871623993, 0.2128683179616928, 0.08064185827970505, 0.23384994268417358, 0.030989406630396843, -0.23652654886245728, 0.2974255084991455, 0.012114732526242733, -0.05925550311803818, -0.46485981345176697, -0.15630656480789185, 0.05969313904643059, 0.10876910388469696, 0.2388273924589157, -0.23972927033901215, -0.6051186323165894, -0.3557104170322418, 0.13443541526794434, 0.01412369217723608, -0.24838240444660187, 0.20864278078079224, -0.24194180965423584, -0.022473258897662163, -0.21621553599834442, 0.39719346165657043, 0.1787223517894745, -0.11118071526288986, 0.3278370201587677, 0.12550847232341766, 0.0013467863900586963, 0.3793479800224304, 0.1895994395017624, -0.07450354099273682, 0.2791851758956909, 0.03472510352730751, -0.0484858974814415, -0.19158142805099487, -0.2075483351945877, 0.15011000633239746, -0.356548547744751, -0.1765088140964508, -0.04131916165351868, -0.19474031031131744, 0.10062481462955475, -0.19301912188529968, 0.08457149565219879, 0.24436862766742706, 0.25840723514556885, -0.06053341552615166, -0.1704850196838379, -0.13833588361740112, 0.27482926845550537, 0.31945472955703735, 0.20684833824634552, 0.48739883303642273, 0.3593502938747406, 0.126215398311615, -0.35252901911735535, -0.08064614981412888, -0.009113883599638939, 0.2999800741672516, -0.1462026834487915, -0.053707391023635864, -0.2527138292789459, 0.12912790477275848, 0.11593736708164215, -0.3223220705986023, 0.0792626291513443, -0.12703688442707062, 0.027123624458909035, 0.03417515009641647, 0.06394438445568085, 0.037535086274147034, -0.05080270394682884, 0.049197178333997726, 0.14013975858688354, -0.020729094743728638, 0.09556014835834503, 0.05881437286734581, -0.12233457714319229, -0.1207086369395256, -0.1808301955461502, -0.13648797571659088, -0.14635437726974487, -0.19213047623634338, -0.1679745316505432, -0.03732840344309807, -0.02612178958952427, 0.15579868853092194, 0.05786856263875961, -0.0034140709321945906, 0.1516195386648178, -0.19134819507598877, -0.15527191758155823, -0.062181487679481506, -0.024051126092672348, -0.1425282061100006, -0.12616018950939178, 0.1833425760269165, -0.3562259376049042, -0.2835424244403839, 0.03799815848469734, -0.08450949937105179, -0.026705069467425346, -0.07895637303590775, 0.28043946623802185, 0.29640087485313416, -0.08150848746299744, -0.18041177093982697, -0.000786071119364351, 0.05652618408203125, 0.19967998564243317, 0.26573121547698975, -0.04186273738741875, -0.06101442873477936, -0.04733721539378166, 0.4046018719673157, -0.05341031402349472, -0.13922132551670074, -0.06255263835191727, -0.04922948405146599, -0.22360111773014069, 0.0540456660091877, -0.09565851092338562, -0.14518611133098602, 0.015571752563118935, -0.10057637095451355, -0.042343731969594955, 0.22173096239566803, -0.0012946210335940123, -0.11034045368432999, 0.1653069257736206, 0.17537908256053925, 0.2858811616897583, -0.04045115411281586, 0.1379016488790512, -0.028056705370545387, -0.08552286028862, 0.2541399896144867, 0.09904253482818604, -0.19036145508289337, 0.010069411247968674, -0.09812536835670471, -0.02386525459587574, -0.14845053851604462, 0.0803113728761673, 0.21810632944107056, -0.06408946961164474, -0.04938145726919174, 0.09449643641710281, 0.004928868729621172, 0.013841381296515465, -0.05095560476183891, 0.12988609075546265, 0.2159530371427536, -0.1138049066066742, -0.3001580536365509, 0.112563855946064, 0.1795385479927063, 0.26812613010406494, 0.20065172016620636, -0.10235181450843811, 0.27919837832450867, -0.2625792920589447, 0.023302404209971428, -0.1792084276676178, 0.10242163389921188, -0.09091540426015854, -0.15798836946487427, -0.06426135450601578, 0.07640315592288971, -0.16255155205726624, -0.047622282058000565, 0.13867397606372833, -0.11476116627454758, -0.1246093288064003, 0.18235456943511963, 0.1106288880109787, -0.05515328422188759, 0.004212090279906988, 0.16421324014663696, 0.18152916431427002, -0.19872118532657623, -0.023574480786919594, 0.09354978054761887, -0.0447811558842659, -0.09598422795534134, 0.03663574159145355, -0.12651558220386505, 0.2076142281293869, 0.13110554218292236, 0.001824500155635178, 0.14069794118404388, 0.038214657455682755, -0.15364386141300201, 0.025881227105855942, 0.005966564174741507, -0.10738775134086609, 0.41860806941986084, -0.01844087615609169, -0.10179533809423447, -0.09778045117855072, -0.15725645422935486, 0.16778533160686493, -0.16092973947525024, -0.025876028463244438, -0.00723086716607213, -0.12303899228572845, -0.06923942267894745, 0.12802694737911224, 0.03173317760229111, 0.051240578293800354, 0.0987660139799118, -0.0642777681350708, 0.05158795788884163, -0.11600703001022339, 0.18555477261543274, 0.15077267587184906, -0.0051514580845832825, 0.14231537282466888, -0.18679498136043549, -0.08481096476316452, 0.06904926151037216, -0.27204403281211853, -0.10227237641811371, -0.10310587286949158, -0.18844707310199738, -0.2349441647529602, 0.06601348519325256, -0.08108938485383987, 0.040629852563142776, 0.02896961010992527, 0.12685266137123108, 0.06033632159233093, -0.03885696455836296, -0.13506734371185303, 0.3294978439807892, 0.06658889353275299, 0.2201143205165863, -0.06107822060585022, 0.12827356159687042, -0.17644791305065155, -0.12255029380321503, 0.1547689288854599, 0.0964401587843895, -0.03467806056141853, 0.19762790203094482, 0.006204321514815092, 0.23230798542499542, -0.2545228600502014, -0.09735585749149323, 0.05759080499410629, 0.01070444006472826, 0.16786836087703705, 0.06378886103630066, -0.05858362093567848, -0.015632709488272667, 0.16716046631336212, -0.12924157083034515, -0.2419847995042801, -0.1751006841659546, 0.09760435670614243, -0.041652288287878036, 0.1843300312757492, 0.0483117513358593, 0.032735489308834076, -0.280192494392395, 0.15826931595802307, 0.11611659079790115, -0.17185521125793457, 0.0960666835308075, -0.08491042256355286, -0.15013878047466278, 0.0011908132582902908, -0.05904209613800049, -0.31275472044944763, -0.19019243121147156, -0.2551659941673279, -0.06898923963308334, -0.04879063367843628, -0.02622257173061371, 0.27739691734313965, -0.4578002095222473, 0.18166609108448029, 0.18209289014339447, -0.13581450283527374, -0.11675544083118439, -0.426443874835968, 0.4110811650753021, 0.5023623704910278, 0.11970644444227219, -0.014325554482638836, -0.04066412150859833, -0.13509900867938995, -0.42012158036231995, 0.07922302186489105, -0.08935356140136719, -0.2895389497280121, -0.37038978934288025, -0.11890680342912674, -0.21888858079910278, -0.11136949062347412, 0.4467684030532837, -0.660240113735199, -0.48453372716903687, -0.21029941737651825, 0.4280148446559906, 0.10410855710506439, -0.42283400893211365, -0.6416774988174438, -0.6656478047370911, -0.22853147983551025, 0.604651689529419, 0.37735623121261597, 0.025184597820043564, 0.11824723333120346, 0.5399875640869141, 0.006804442033171654, -0.06390891969203949, 0.9439613223075867, 0.1921638548374176, 0.32267603278160095, 0.31161049008369446, 0.026097195222973824, -0.3154679536819458, -0.08498012274503708, -0.053363945335149765, -0.3997732698917389, -0.4143081307411194, -0.02584150992333889, -0.16521123051643372, 0.13089202344417572, 0.10304733365774155, 0.08808666467666626, 0.07700798660516739, -0.008861529640853405, 0.04728491231799126, -0.013543368317186832, -0.07114773988723755, 0.21413788199424744, 0.11943288892507553, -0.13346169888973236, 0.10751403868198395, 0.04546268284320831, 0.11172179877758026, -0.215834379196167, -0.16862213611602783, 0.11100027710199356, -0.02703385055065155, 0.0062053631991147995, -0.3146180808544159, -0.07393307238817215, -0.1486603170633316, 0.001565425656735897, -0.25405046343803406, -0.14543181657791138, -0.13981489837169647, -0.08733438700437546, 0.1274738758802414, 0.12384531646966934, 0.03438698872923851, 0.054624080657958984, -0.2602618932723999, 0.030493859201669693, -0.0002078781690215692, -0.050235647708177567, 0.009321596473455429, -0.17678174376487732, -0.05153921619057655, -0.01524428278207779, 0.023359719663858414, -0.2027638554573059, -0.025072073563933372, -0.08648868650197983, 0.13574469089508057, 0.005704034119844437, 0.1937708854675293, 0.26845747232437134, 0.180461585521698, 0.09333426505327225, -0.1253633350133896, 0.05831988900899887, -0.09131680428981781, 0.07598257809877396, 0.1177261546254158, 0.27732911705970764, 0.07894075661897659, -0.3372465670108795, 0.11568643897771835, 0.1015196144580841, 0.044754065573215485, -0.1042175218462944, 0.430179238319397, -0.19232666492462158, -0.43746718764305115, 0.17197175323963165, 0.7315079569816589, -0.2981007993221283, 0.18161353468894958, -0.7437379360198975, -0.43811705708503723, -0.5350417494773865, 0.9562312364578247, -1.0169801712036133, -0.7351266741752625, -1.0350053310394287, 0.3267177641391754, -0.5915014147758484, 0.1767251342535019, -0.5754988193511963, -0.12913993000984192, -0.015173416584730148, 0.37754520773887634, 0.4550815522670746, 0.1404724419116974, -0.045880477875471115, -0.09578611701726913, -0.002502243034541607, -0.0012844710145145655, -0.17342671751976013, 0.06303390860557556, 0.056351881474256516, 0.08526168763637543, 0.15002353489398956, 0.14309564232826233, 0.050638597458601, 0.18406538665294647, 0.03939974308013916, -0.20587146282196045, -0.1627296656370163, 0.09426473081111908, 0.33565670251846313, -0.24366721510887146, -0.1393398493528366, 0.0625801533460617, -0.06288587301969528, 0.15998749434947968, 0.319685697555542, -0.11230310797691345, -0.1005261093378067, 0.08388086408376694, 0.06338490545749664, -0.21430297195911407, 0.07928682118654251, -0.07888994365930557, 0.24444204568862915, -0.17365999519824982, 0.035372890532016754, 0.18181174993515015, 0.07095152139663696, 0.12406598031520844, 0.27549076080322266, -0.1767156720161438, -0.2515143156051636, -0.00380237540230155, 0.05542995408177376, 0.03652968630194664, 0.0809398964047432, 0.24753619730472565, -0.04588586837053299, -0.3575628697872162, -0.4415477216243744, -0.09272975474596024, 0.13507917523384094, 0.0432884506881237, 0.009686685167253017, -0.2062559425830841, 0.040745582431554794, 0.2734336853027344, 0.33161112666130066, -0.054148390889167786, -0.20456679165363312, 0.09115118533372879, -0.018995987251400948, 0.3755836486816406, 0.027052173390984535, -0.28235217928886414, -0.4842931926250458, 0.12935224175453186, 0.2946193218231201, -0.006982472725212574, 0.27613404393196106, 0.08713963627815247, -0.0682850107550621, -0.32318007946014404, 0.3426682651042938, -0.16949406266212463, -0.2392365038394928, -0.27990543842315674, -0.23880337178707123, -0.250458300113678, -0.2935928702354431, -0.16769163310527802, 0.0259870532900095, -0.0884101539850235, -0.35220789909362793, 0.12581633031368256, -0.10170301049947739, 0.22201810777187347, 0.12538501620292664, -0.22162601351737976, -0.12573358416557312, 0.1788826286792755, -0.16684606671333313, -0.20146444439888, 0.01804167963564396, 0.09476190060377121, -0.1087241917848587, 0.08837681263685226, -0.1251823604106903, 0.1858266144990921, 0.36879852414131165, -0.4653381109237671, -0.25824084877967834, 0.27632999420166016, -0.08201263099908829, -0.1498243361711502, 0.0613192617893219, 0.08572764694690704, 0.011895845644176006, -0.10753942281007767, 0.1239226683974266, -0.044543080031871796, 0.05083807557821274, 0.12052074074745178, 0.3349636495113373, -0.00891857873648405, -0.32236209511756897, 0.006475148722529411, 0.03645569458603859, 0.2393190562725067, 0.29167529940605164, -0.44588977098464966, -0.1540069282054901, 0.11865225434303284, 0.11846745759248734, 0.13197427988052368, 0.11524902284145355, -0.09567101299762726, 0.1409560590982437, -0.1845477819442749, -0.07799091190099716, -0.29619431495666504, -0.37241703271865845, 0.29615843296051025, -0.11341490596532822, 0.048800740391016006, 0.13109122216701508, 0.2928815484046936, -0.05329905450344086, -0.06041042134165764, 0.22897522151470184, -0.03951331973075867, 0.28227677941322327, -0.23789359629154205, -0.3198491930961609, -0.17446720600128174, 0.21143922209739685, 0.11388956010341644, -0.41825366020202637, 0.1228155717253685, -0.15543513000011444, 0.16523419320583344, 0.06991254538297653, 0.17502343654632568, 0.016590289771556854, 0.4459621012210846, 0.11612129211425781, 0.24848584830760956, -0.02171322889626026, -0.1384662240743637, -0.09897249191999435, -0.31744563579559326, 0.041362907737493515, 0.09487023204565048, -0.023356279358267784, -0.060097869485616684, 0.007656927220523357, 0.14243318140506744, 0.3771005868911743, -0.12751223146915436, 0.13583751022815704, 0.0915902704000473, 0.1649145781993866, -0.06183290481567383, 0.12720856070518494, 0.07090399414300919, 0.04700493440032005, -0.4395827353000641, -0.32312119007110596, -0.12348082661628723, 0.09307809919118881, 0.19960564374923706, 0.20357999205589294, -0.37290817499160767, 0.28190183639526367, 0.23555144667625427, 0.0026689295191317797, 0.025066707283258438, -0.02655518613755703, -0.08399704098701477, -0.032090939581394196, -0.2065495103597641, -0.13404524326324463, -0.2038881927728653, 0.08948983252048492, -0.2057320773601532, -0.00854760967195034, 8.848136349115521e-05, 0.10474583506584167, 0.06001118943095207, -0.0615532249212265, -0.1687503457069397, -0.07347101718187332, 0.09215864539146423, -0.19428008794784546, -0.1139766201376915, -0.08440922200679779, -0.07784395664930344, 0.004769116174429655, -0.22222106158733368, 0.28288665413856506, -0.12408184260129929, -0.17868266999721527, -0.017772868275642395, -0.11340688169002533, 0.3827463984489441, 0.46256664395332336, -0.032133281230926514, -0.23064790666103363, 0.23516930639743805, 0.29220154881477356, 0.09849473088979721, 0.0991276204586029, 0.01705961860716343, 0.38949647545814514, 0.11801636964082718, 0.08092781901359558, 0.21818140149116516, -0.057564761489629745, -0.17685209214687347, -0.1293969452381134, 0.12201092392206192, -0.008123035542666912, -0.24949944019317627, -0.2998363673686981, -0.1987055540084839, 0.022108333185315132, 0.3072234094142914, 0.024944519624114037, 0.17520646750926971, -0.18825437128543854, 0.037993840873241425, -0.0029481337405741215, -0.05486967787146568, 0.13910949230194092, -0.11805147677659988, 0.06413118541240692, 0.20516984164714813, -0.29792520403862, 0.11607819050550461, 0.028383653610944748, -0.05518285185098648, 0.16858772933483124, -0.04598984122276306, -0.1838718205690384, -0.08404380828142166, -0.08122611790895462, -0.027633395045995712, -0.09685672074556351, -0.19183625280857086, -0.021046381443738937, -0.04985971003770828, 0.17122073471546173, 0.028524238616228104, 0.037042420357465744, 0.08693454414606094, -0.0614660270512104, -0.09594638645648956, -0.24904364347457886, -0.23209279775619507, -0.056741051375865936, 0.2933916449546814, 0.05606338009238243, -0.15707233548164368, -0.11333134770393372, -0.2654806673526764, -0.053776346147060394, -0.10982778668403625, -0.005891399923712015, 0.09459750354290009, -0.12664829194545746, -0.3852587938308716, -0.028220728039741516, -0.029351549223065376, -0.15843921899795532, -0.10649127513170242, 0.1933504194021225, 0.10086464881896973, -0.12708954513072968, -0.16852055490016937, 0.032455332577228546, 0.15174177289009094, 0.08412156254053116, 0.22800283133983612, -0.23641905188560486, 0.008266358636319637, 0.1580076813697815, 0.27079570293426514, -0.1700018346309662, 0.0660170242190361, -0.06410696357488632, -0.21090838313102722, 0.047524891793727875, 0.09105286747217178, -0.008243604563176632, 0.019253797829151154, 0.02130184695124626, -0.08213852345943451, -0.025184182450175285, 0.1489904671907425, -0.20811834931373596, 0.1102370172739029, 0.06898738443851471, 0.027291517704725266, 0.015763316303491592, -0.13180987536907196, 0.15003572404384613, -0.16835474967956543, -0.1627430021762848, -0.10823023319244385, -0.014096388593316078, 0.03213898092508316, -0.11347565799951553, 0.09273980557918549, -0.19151034951210022, 0.21609853208065033, 0.05477509647607803, 0.03981919586658478, -0.10651683062314987, -0.14780855178833008, -0.14840033650398254, -0.044694654643535614, -0.08839870244264603, 0.279737651348114, -0.04866328835487366, 0.07288097590208054, 0.014447220601141453, 0.12908905744552612, -0.1866302490234375, -0.034580767154693604, 0.030228301882743835, 0.032693348824977875, 0.08885635435581207, 0.15014266967773438, -0.2122190296649933, -0.1755734235048294, -0.19658567011356354, 0.018598686903715134, -0.19984537363052368, 0.19715452194213867, -0.021722322329878807, -0.05559545010328293, 0.01972677744925022, -0.23195326328277588, 0.11124740540981293, -0.06497052311897278, -0.046750664710998535, -0.2065981775522232, -0.017938105389475822, -0.14684367179870605, -0.24842123687267303, -0.054206930100917816, 0.03429677337408066, -0.3223894238471985, -0.07052510231733322, 0.08458007872104645, 0.10470802336931229, -0.15198393166065216, -0.029708363115787506, -0.0473761186003685, 0.35752755403518677, -0.08652897924184799, -0.275613009929657, 0.30605044960975647, -0.012537837028503418, -0.07486741989850998, -0.13920246064662933, -0.24452364444732666, -0.05314311385154724, 0.03834005072712898, 0.004516590386629105, 0.27877625823020935, -0.004316866863518953, 0.22301998734474182, 0.22654159367084503, 0.13876062631607056, 0.058180030435323715, -0.12064452469348907, -0.14769215881824493, 0.2518245279788971, 0.12373904883861542, 0.24162724614143372, -0.22082209587097168, -0.1557473987340927, 0.10420247912406921, -0.03637336194515228, -0.24800294637680054, 0.058907754719257355, -0.0042903004214167595, -0.23930920660495758, -0.11681794375181198, -0.22507914900779724, 0.23332858085632324, 0.21383771300315857, -0.0191140528768301, -0.11678918451070786, 0.15047696232795715, -0.06682972609996796, -0.1565176248550415, 0.2898237407207489, -0.01865367218852043, -0.24776922166347504, -0.26899904012680054, 0.04324687272310257, 0.2715023458003998, -0.19187715649604797, 0.0018195920856669545, 0.3583303391933441, -0.0021664793603122234, 0.11536528915166855, -0.19618579745292664, 0.23000355064868927, 0.17938514053821564, -0.17697714269161224, 0.1898697167634964, 0.08844837546348572, -0.48005548119544983, 0.05607207491993904, -0.0035574515350162983, -0.19088105857372284, -0.1475841999053955, -0.11795874685049057, 0.20048344135284424, 0.2198028564453125, -0.024591345340013504, -0.21279004216194153, -0.02161485329270363, 0.06392993032932281, 0.3154382109642029, 0.1120198667049408, 0.0958348736166954, -0.275890976190567, -0.19996203482151031, -0.22042953968048096, -0.23409023880958557, 0.18415077030658722, 0.07943989336490631, -0.08154235780239105, 0.13878929615020752, -0.24260614812374115, -0.29134970903396606, 0.11599177867174149, -0.05645785480737686, -0.15710127353668213, 0.26491591334342957, -0.033219676464796066, -0.009765717200934887, 0.09627407789230347, 0.09530521929264069, 0.09375697374343872, -0.18295247852802277, 0.04544246196746826, 0.2153618037700653, 0.28634440898895264, -0.20938600599765778, -0.02330104447901249, -0.25703325867652893, 0.10913916677236557, 0.06927508115768433, -0.20204269886016846, 0.03943715989589691, 0.02725503407418728, -0.11935683339834213, 0.30112895369529724, -0.09098044037818909, -0.08221922069787979, 0.11826588958501816, -0.0749572291970253, 0.1440565437078476, 0.053576722741127014, -0.0658070370554924, -0.32358404994010925, -0.08624229580163956, 0.175043523311615, 0.029034938663244247, -0.23846790194511414, 0.016244906932115555, -0.10279424488544464, -0.017172595486044884, 0.20616251230239868, -0.09501059353351593, 0.05539941415190697, 0.012776260264217854, -0.28978246450424194, -0.03865553066134453, 0.1611725389957428, 0.11866665631532669, 0.3378171920776367, -0.281909316778183, -0.2245362251996994, 0.056791555136442184, 0.11673276126384735, -0.28903716802597046, -0.10673022270202637, 0.2153550386428833, -0.14606216549873352, -0.3308674991130829, 0.30283093452453613, 0.2454245537519455, -0.10893449187278748, -0.23870527744293213, 0.011728291399776936, 0.16483545303344727, 0.06070052832365036, 0.262771874666214, -0.07005185633897781, -0.11840768158435822, 0.1826598197221756, -0.10037925839424133, -0.16547322273254395, 0.07684177905321121, -0.23863399028778076, -0.09383606165647507, -0.08486472815275192, -0.06765332072973251, 0.10083772242069244, -0.31616920232772827, -0.04669840261340141, 0.08427036553621292, 0.04506616294384003, 0.032354243099689484, -0.07653053104877472, -0.23074138164520264, -0.06507562845945358, 0.1507524847984314, 0.2419295608997345, -0.1315181702375412, -0.302420049905777, 0.03424685448408127, -0.1013292744755745, -0.16673684120178223, 0.2921845018863678, 0.0208835918456316, -0.07712412625551224, -0.0698980912566185, -0.2708466947078705, 0.12273669987916946, 0.2812052071094513, -0.0645831748843193, -0.20313873887062073, 0.19852694869041443, -0.014583841897547245, -0.07663567364215851, 0.1228148341178894, 0.04389598220586777, -0.237825408577919, -0.05180111154913902, 0.02625984326004982, 0.1413121521472931, -0.04456712305545807, -0.3141798973083496, 0.0041874912567436695, -0.27632737159729004, -0.1332145780324936, 0.008513347245752811, 0.272737592458725, -0.18758754432201385, -0.1832524836063385, -0.47276532649993896, 0.2661774456501007, 0.09173571318387985, -0.3439798057079315, -0.04692283645272255, 0.14023543894290924, -0.06800217181444168, 0.17372293770313263, 0.18181142210960388, 0.16558052599430084, -0.16253000497817993, -0.03259735554456711, 0.321625292301178, -0.06301313638687134, -0.1668933629989624, -0.0089069539681077, 0.9644539952278137, 0.030184930190443993, 0.049019310623407364, 0.43280649185180664, 0.22481447458267212, 0.005065456032752991, 0.030980734154582024, -0.11256974190473557, -0.5538952946662903, 0.23738138377666473, 0.11976084858179092, 0.08038286864757538, -0.14070789515972137, 0.09956199675798416, 0.1582929641008377, -0.08359909057617188, 0.020281778648495674, 0.31607452034950256, -0.21994471549987793, 0.0318254679441452, 0.06430034339427948, -0.11698500066995621, 0.10377012193202972, -0.07326602935791016, 0.23681318759918213, -0.04038948565721512, 0.19433006644248962, 0.013743291608989239, -0.02717715874314308, 0.15723341703414917, 0.09830287843942642, -0.15104444324970245, -0.01282187644392252, -0.05303629860281944, 0.12410255521535873, -0.09057124704122543, 0.09699934720993042, 0.17435690760612488, -0.11980877071619034, 0.1274319887161255, 0.02025166153907776, 0.0025971673894673586, -0.08814879506826401, -0.0318809449672699, -0.20355628430843353, 0.09368797391653061, -0.08078280836343765, 0.10157414525747299, 0.0845840722322464, -0.20833690464496613, -0.08483032882213593, -0.061848293989896774, -0.2939327657222748, 0.3426728844642639, -0.1629747599363327, -0.09747327119112015, 0.0617072731256485, -0.276767373085022, 0.056014787405729294, 0.221549391746521, 0.10327961295843124, 0.01805640384554863, 0.0981995090842247, -0.1646907478570938, -0.10891228169202805, 0.030245285481214523, 0.019646983593702316, -0.34938573837280273, -0.30784034729003906, -0.006855566520243883, 0.12420285493135452, -0.14730757474899292, -0.09175486862659454, -0.036744799464941025, -0.005427565425634384, -0.3069888949394226, 0.24791526794433594, 0.0621674545109272, 0.05530526489019394, -0.11266768723726273, -0.1229385957121849, 0.004223820753395557, 0.1104176789522171, -0.3097262382507324, -0.08745194226503372, 0.07281528413295746, -0.08577443659305573, 0.1716800183057785, -0.05665958672761917, 0.18678033351898193, 0.013979588635265827, 0.18451084196567535, 0.11145594716072083, -0.00965107511729002, -0.056936606764793396, 0.0927196741104126, 0.20481909811496735, 0.366188108921051, -0.17927339673042297, 0.15493692457675934, 0.1873588263988495, 0.09588562697172165, 0.026333928108215332, -0.16350780427455902, -0.014116911217570305, 0.24870665371418, -0.18284539878368378, -0.19186854362487793, 0.08297745138406754, -0.05657774582505226, 0.04558483883738518, -0.018886281177401543, 0.10353952646255493, 0.05697488412261009, -0.004342186730355024, 0.12645557522773743, -0.04046403989195824, -0.11302472651004791, 0.001936942571774125, 0.028330905362963676, -0.22264479100704193, -0.26904937624931335, -0.03259364888072014, 0.25462985038757324, 0.2020770013332367, -0.22329699993133545, -0.02898547425866127, 0.21528871357440948, -0.19323568046092987, 0.2618360221385956, 0.011773280799388885, 0.03789181262254715, 0.2506955564022064, 0.14186711609363556, 0.0726291835308075, -0.0775446891784668, -0.21338355541229248, -0.28875336050987244, 0.0060411677695810795, -0.0339873805642128, 0.15697284042835236, -0.393608957529068, -0.2656269073486328, -0.12748272716999054, 0.1267598420381546, 0.04362368583679199, 0.11014004051685333, -0.026848942041397095, 0.019259609282016754, -0.18980751931667328, 0.03279627114534378, 0.08709516376256943, -0.06779836118221283, 0.46461614966392517, -0.2509508430957794, -0.17538002133369446, 0.03704671561717987, 0.1354474276304245, -0.286481648683548, -0.13049934804439545, 0.12728095054626465, -0.06685208529233932, -0.15758666396141052, -0.007639482617378235, 0.2989502549171448, 0.016696006059646606, -0.1856285184621811, -0.21711616218090057, 0.04897426813840866, 0.0656856968998909, 0.3235071897506714, 0.14533619582653046, 0.1625523567199707, 0.20401982963085175, 0.018609236925840378, -0.001999917905777693, 0.2620958089828491, 0.07908450812101364, 0.04308521747589111, 0.28226438164711, -0.04310371354222298, 0.1139625832438469, -0.07582275569438934, 0.07475046813488007, 0.025667347013950348, 0.2112073451280594, 0.08567026257514954, -0.21756549179553986, -0.04955817386507988, 0.1437765657901764, 0.12087951600551605, 0.056233543902635574, -0.2033030092716217, -0.24574831128120422, 0.18416793644428253, 0.03625931590795517, 0.10876793414354324, 0.20963548123836517, -0.06699627637863159, -0.05445835739374161, -0.0021846056915819645, -0.34512004256248474, 0.2120857685804367, 0.20560403168201447, -0.005414837040007114, -0.11489208042621613, 0.2653714418411255, -0.2147434949874878, -0.20353074371814728, 0.12638571858406067, 0.2518199682235718, -0.18829208612442017, -0.09288360923528671, -0.018476873636245728, 0.13619683682918549, 0.07290016859769821, -0.15550045669078827, 0.17362168431282043, -0.2543884217739105, 0.03919564187526703, -0.11061123013496399, 0.175209179520607, -0.07431026548147202, 0.0716686099767685, -0.25742894411087036, 0.37057316303253174, 0.028957413509488106, -0.11085551977157593, 0.32747840881347656, 0.13065853714942932, -0.12234368920326233, -0.22141769528388977, 0.023031381890177727, -0.07050345838069916, -0.007657060865312815, 0.030292078852653503, 0.21016287803649902, -0.2952065169811249, -0.1052854135632515, -0.014539267867803574, 0.08347782492637634, -0.0993964672088623, -0.1059311255812645, -0.3754769563674927, -0.05275425314903259, 0.06577739864587784, -0.09454543143510818, -0.12710753083229065, -0.05293339490890503, 0.24435432255268097, 0.022210530936717987, 0.07366630434989929, -0.024056434631347656, 0.029546475037932396, 0.0479603074491024, -0.11830398440361023, 0.07776082307100296, -0.05240984633564949, -0.5201689600944519, -0.11161410808563232, -0.08487523347139359, -0.11063141375780106, -0.03945324197411537, 0.08901472389698029, -0.05152474716305733, 0.1893417239189148, -0.01308143325150013, 0.043623678386211395, -0.10052479058504105, -0.22064298391342163, -0.14046207070350647, 0.13227179646492004, -0.19113507866859436, -0.0610332116484642, -0.09063811600208282, 0.3551291525363922, 0.3318033218383789, 0.24198554456233978, 0.15039578080177307, 0.0008721030317246914, 0.04944123327732086, -0.23997235298156738, 0.1432773321866989, -0.04688439890742302, 0.26411888003349304, -0.05778117477893829, 0.07763520628213882, -0.03029455617070198, -0.24874931573867798, 0.10175178200006485, -0.4111163318157196, -0.1335139274597168, -0.23745547235012054, -0.11306139826774597, 0.1442180722951889, 0.10096494853496552, 0.06952659785747528, 0.07458952069282532, -0.13076263666152954, -0.2072528451681137, 0.039864085614681244, 0.039551302790641785, -0.09036009758710861, 0.12893928587436676, 0.1806284487247467, 0.015400594100356102, 0.0819544866681099, 0.04585617035627365, 0.2804504334926605, -0.002977224765345454, -0.002890717936679721, -0.1799067109823227, -0.090912826359272, -0.03141320124268532, 0.16655808687210083, -0.045373234897851944, -0.10409726202487946, 0.2740970551967621, 0.019138898700475693, -0.18489055335521698, -0.1386425793170929, 0.11634626239538193, 0.27597999572753906, -0.14938245713710785, 0.3013369143009186, 0.39103585481643677, -0.15289419889450073, -0.029380492866039276, -0.05113300308585167, 0.15270070731639862, -0.07144211232662201, -0.09231563657522202, 0.06363538652658463, -0.0374312587082386, -0.09436062723398209, 0.07449588179588318, 0.026578562334179878, -0.06704016029834747, -0.014756693504750729, -0.31437796354293823, -0.14444418251514435, 0.17229200899600983, -0.024259265512228012, -0.1765008419752121, -0.03760705143213272, 0.04011968895792961, 0.2272787094116211, 0.03504491597414017, 0.05180623009800911, -0.10822227597236633, 0.205070361495018, 0.06526456028223038, -0.17121155560016632, 0.036323755979537964, -0.09767026454210281, -0.2349216490983963, -0.21640609204769135, 0.017944062128663063, 0.11667659878730774, 0.11077401041984558, 0.03402668610215187, 0.23260962963104248, -0.024788198992609978, 0.17555786669254303, 0.0635058805346489, 0.11494636535644531, -0.010094976052641869, 0.15500880777835846, -0.032166775315999985, 0.30722740292549133, 0.1986459195613861, -0.19658306241035461, -0.07444514334201813, -0.47120314836502075, -0.07564400881528854, -0.3823710083961487, -0.3232261538505554, -0.05650729686021805, -0.007654515560716391, -0.2061522901058197, -0.09012693911790848, -0.43872514367103577, -0.17449025809764862, 0.08502854406833649, -0.19651006162166595, 0.32867780327796936, -0.00311212963424623, -0.0668376013636589, 0.36674705147743225, 0.10873106122016907, 0.140507310628891, 0.15276402235031128, -0.08879538625478745, 0.5500814318656921, -0.04485354945063591, -0.038819920271635056, -0.17595861852169037, -0.10106377303600311, 0.06981217116117477, -0.021252695471048355, 0.20818142592906952, 0.0655764639377594, -0.32345977425575256, 0.12088825553655624, -0.12176195532083511, -0.0480816550552845, -0.26844528317451477, 0.1680852323770523, 0.007801101543009281, 0.02061084844172001, -0.19806933403015137, 0.044198617339134216, 0.17316283285617828, -0.2836472988128662, 0.07169272005558014, 0.21007074415683746, -0.20653624832630157, 0.16709770262241364, 0.12634330987930298, 0.0017750660190358758, 0.12232502549886703, -0.0520353689789772, 0.22948648035526276, -0.07007993012666702, -0.169388547539711, -0.08322210609912872, 0.0107471514493227, 0.17540381848812103, 0.1447262018918991, -0.05224449560046196, 0.054148513823747635, -0.000639487465377897, 0.27585458755493164, 0.16073302924633026, -0.24415813386440277, 0.022430745884776115, 0.024524247273802757, -0.21681886911392212, -0.10877103358507156, 0.19601863622665405, -0.02681955136358738, 0.2606683075428009, -0.09779244661331177, -0.2582535743713379, 0.16836205124855042, 0.03387821838259697, -0.22877590358257294, 0.09905530512332916, 0.09654335677623749, -0.03411103039979935, -0.21232269704341888, 0.08337037265300751, 0.04523026943206787, -0.10463014245033264, 0.006473022047430277, 0.0023091535549610853, 0.14792434871196747, 0.13221590220928192, -0.06664201617240906, 0.14617368578910828, 0.1078028529882431, -0.046175990253686905, -0.022587208077311516, 0.035539042204618454, 0.13502371311187744, 0.052263595163822174, 0.015217169187963009, -0.168669655919075, 0.07671469449996948, 0.07225048542022705, 0.0711682066321373, -0.347697377204895, -0.46672961115837097, 0.9314879775047302, 0.284822016954422, -0.3593564033508301, -0.031977809965610504, -0.09968124330043793, -0.24157434701919556, 0.6045596599578857, -0.7788464426994324, 0.8999528288841248, 0.706365168094635, 0.17567749321460724, -0.46823108196258545, 0.17050333321094513, -0.6671715974807739, 0.0905948132276535, -0.17660868167877197, 0.3703922927379608, -0.3654348850250244, -0.032310858368873596, 0.18659436702728271, 0.34583187103271484, -0.029506556689739227, 0.034968841820955276, -0.03771742060780525, 0.3241593837738037, -0.06531694531440735, -0.22932766377925873, 0.2339973896741867, -0.23016607761383057, -0.3084624409675598, 0.14516544342041016, 0.07876010239124298, 0.0006878245621919632, 0.19384132325649261, 0.11643130332231522, 0.1715550273656845, -0.11256688088178635, -0.11057840287685394, -0.5557474493980408, -0.042327530682086945, 0.08569494634866714, -0.12828105688095093, 0.09509266167879105, 0.11308077722787857, -0.09970677644014359, -0.08299066871404648, 0.2118651419878006, -0.1190556064248085, -0.17615818977355957, -0.22645510733127594, 0.6073653697967529, -0.365814208984375, -0.3782491981983185, -0.30113455653190613, -0.14427220821380615, 0.27256694436073303, -0.4556295573711395, -0.050031308084726334, 0.3158411383628845, -0.6079233884811401, -0.12193477898836136, 0.2788044214248657, 0.18907128274440765, 0.03097972832620144, 0.09014687687158585, -0.05328315496444702, -0.24505995213985443, 0.13612370193004608, -0.14135921001434326, 0.23258432745933533, -0.03270275518298149, -0.11024752259254456, 0.19670060276985168, 0.01937272399663925, 0.02887178584933281, 0.15837952494621277, -0.11057715862989426, -0.10221946239471436, 0.2977314293384552, -0.09780681133270264, 0.25980812311172485, -0.11938022822141647, 0.12184262275695801, -0.04488663375377655, -0.1318715512752533, 0.07161882519721985, 0.273106187582016, -0.07079008966684341, -0.10458873212337494, -0.2594169080257416, -0.14262349903583527, -0.15048521757125854, 0.2330021858215332, -0.1993081271648407, -0.12718677520751953, -0.09751623123884201, 0.03068050555884838, -0.045496996492147446, -0.052458200603723526, 0.05764250084757805, 0.015087750740349293, 0.22311441600322723, 0.07723379880189896, -0.13592705130577087, -0.06094658002257347, 0.17797009646892548, 0.023504892364144325, 0.27832522988319397, 0.3113741874694824, 0.06644995510578156, -0.04823959618806839, 0.11825089156627655, -0.030345311388373375, 0.03930233418941498, 0.24827219545841217, -0.16788065433502197, 0.08133898675441742, -0.03795457258820534, -0.3249143064022064, 0.19126026332378387, 0.2294773906469345, -0.18702000379562378, 0.23242321610450745, -0.038262881338596344, -0.10319122672080994, 0.1486661732196808, 0.22352837026119232, 0.19235102832317352, -0.3177652657032013, -0.14565391838550568, 0.38655221462249756, -0.1909790188074112, -0.12571921944618225, -0.028253890573978424, 0.15632811188697815, 0.31323179602622986, -0.15895357728004456, 0.21866430342197418, -0.03003646247088909, 0.02756991609930992, 0.1802007257938385, 0.10154683142900467, -0.07396746426820755, 0.2761596143245697, -0.05348101630806923, 0.1757013499736786, 0.027926266193389893, 0.11456648260354996, -0.01008270401507616, 0.24125325679779053, -0.004042338114231825, -0.00401870533823967, 0.08502545207738876, 0.08292992413043976, -0.3869226276874542, 0.2508823573589325, -0.11505082249641418, -0.1263221800327301, -0.04277321696281433, -0.006700087338685989, -0.24057933688163757, 0.35297009348869324, -0.027076682075858116, 0.34439149498939514, -0.08824048936367035, -0.11267007142305374, 0.0124179283156991, -0.008123774081468582, 0.10037310421466827, 0.07633190602064133, 0.015353674069046974, -0.06149183213710785, 0.14466235041618347, -0.08990466594696045, 0.38995644450187683, -0.06407911330461502, -0.5539392232894897, -0.3179997503757477, 0.4869895875453949, -0.3550899922847748, -0.14969806373119354, -0.07909473031759262, 0.29421865940093994, 0.34742090106010437, -0.435598224401474, -0.03214549273252487, 0.05327584594488144, -0.3293496370315552, -0.02216944471001625, 0.5085334777832031, 0.029070571064949036, 0.07724768668413162, -0.04826738312840462, -0.04066915810108185, -0.3136531114578247, 0.40053245425224304, 0.4095030426979065, 0.13724283874034882, -0.025049395859241486, -0.31518474221229553, -0.1421695053577423, 0.12792938947677612, -0.27076494693756104, -0.030648458749055862, -0.050327371805906296, 0.044433098286390305, -0.31940320134162903, -0.32521697878837585, -0.1765318512916565, 0.07215166836977005, 0.40843749046325684, -0.09119047969579697, -0.23933254182338715, -0.27444130182266235, -0.06717152893543243, 0.11025137454271317, -0.46671727299690247, 0.20642364025115967, 0.2248828113079071, -0.17614954710006714, 0.08892164379358292, 0.1791580617427826, -0.09852692484855652, 0.15854142606258392, -0.19977441430091858, -0.22823475301265717, 0.15991739928722382, -0.23436200618743896, -0.1565925031900406, -0.13566024601459503, 0.09789745509624481, 0.19983384013175964, 0.17292006313800812, -0.3024837076663971, -0.10839828103780746, 0.10084808617830276, -0.22020693123340607, 0.15474745631217957, -0.24706155061721802, 0.16500015556812286, -0.03436165302991867, -0.021862290799617767, -0.030666491016745567, -0.13497555255889893, 0.3414236605167389, -0.24179989099502563, -0.1601821631193161, 0.1178114116191864, 0.12177889049053192, 0.3491334915161133, -0.006181884557008743, 0.12350538372993469, -0.01976606249809265, 0.0017825443064793944, 0.05658397823572159, -0.18056237697601318, -0.04170350730419159, -0.10980507731437683, -0.024292748421430588, -0.16860462725162506, -0.10442518442869186, -0.322210431098938, -0.03589484840631485, 0.17949630320072174, 0.059257183223962784, -0.05900701880455017, -0.15191659331321716, -0.2604721784591675, 0.20922362804412842, 0.09062937647104263, -0.03230369836091995, -0.10707398504018784, -0.043379370123147964, 0.03882214426994324, -0.14189128577709198, 0.20948487520217896, 0.015726961195468903, -0.023455439135432243, -0.3717372715473175, -0.05277768149971962, 0.02484174631536007, 0.13381102681159973, 0.10180787742137909, 0.08560068160295486, 0.04265550523996353, -0.009245743043720722, 0.15360066294670105, -0.14997491240501404, 0.06177379563450813, -0.1849440485239029, 0.02423032931983471, 0.14159096777439117, -0.2029763162136078, 0.07000326365232468, 0.15072230994701385, -0.1847124993801117, 0.14022843539714813, 0.06324134767055511, -0.23575511574745178, -0.03427834063768387, -0.09412212669849396, 0.24649779498577118, 0.023618541657924652, 0.047596391290426254, 0.13127677142620087, -0.0630413293838501, 0.15255580842494965, -0.22727879881858826, 0.10507278144359589, 0.0625108927488327, -0.020586196333169937, -0.047006238251924515, 0.011379721574485302, 0.12800247967243195, 0.15549035370349884, -0.03722347319126129, -0.3352161943912506, 0.06432273238897324, 0.15921318531036377, 0.4567447304725647, -0.10639692842960358, -0.15168599784374237, -0.41269952058792114, -0.08621439337730408, -0.1930084228515625, -0.11497290432453156, 0.04384398087859154, -0.16516540944576263, -0.04462047666311264, -0.26918843388557434, -0.33868375420570374, -0.2347373217344284, -0.09036725014448166, -0.02337232045829296, 0.04863717406988144, 0.28258416056632996, -0.20116230845451355, 0.05220330134034157, -0.142491415143013, 0.07881645858287811, -0.10249771177768707, -0.21342813968658447, 0.2370593547821045, -0.24719762802124023, 0.04319740831851959, 0.2529473900794983, 0.001031961408443749, 0.09202875941991806, 0.08631544560194016, 0.23014375567436218, -0.1050804853439331, -0.23362454771995544, -0.3323032259941101, -0.01103225164115429, 0.18834614753723145, 0.15607349574565887, -0.08317425101995468, -0.11280850321054459, 0.016356345266103745, 0.07238249480724335, 0.0632932186126709, -0.0606483519077301, 0.08898146450519562, 0.2616865932941437, -0.24774467945098877, -0.05414022505283356, 0.24338418245315552, 0.04455826058983803, 0.04143304005265236, -0.2746603488922119, -0.058068547397851944, -0.020054299384355545, 0.11893431842327118, -0.31887128949165344, 0.07738398015499115, 0.10206235945224762, 0.00425919471308589, 0.10468077659606934, 0.08957986533641815, 0.11183401197195053, 0.2330690175294876, -0.1654931753873825, -0.22477461397647858, -0.22636404633522034, 0.17178702354431152, 0.1614229381084442, 0.0907050371170044, -0.24175649881362915, -0.12957054376602173, 0.20871999859809875, 0.01021723821759224, 0.04662928357720375, 0.09022260457277298, -0.04494652524590492, -0.005668073892593384, 0.020657198503613472, 0.1596420258283615, -0.07776038348674774, -0.14747320115566254, 0.18872229754924774, 0.10794246196746826, 0.17079176008701324, -0.2739608883857727, -0.01251065544784069, 0.0019085583044216037, 0.09665422141551971, 0.0394962877035141, 0.06304048746824265, -0.05475545674562454, 0.2631918489933014, 0.052701592445373535, -0.04063700512051582, 0.03584389016032219, 0.23706911504268646, -0.21455071866512299, 0.15709082782268524, -0.2220032811164856, 0.1534702181816101, -0.051662154495716095, 0.08481505513191223, -0.09688824415206909, -0.029319221153855324, 0.0877828523516655, -0.2506653964519501, 0.14848193526268005, -0.13469091057777405, -0.11981578171253204, -0.19079801440238953, -0.01858220063149929, 0.144070103764534, 0.21074044704437256, 0.26276418566703796, -0.013889594934880733, -0.23290525376796722, -0.08066356182098389, 0.03898448869585991, 0.1804852932691574, 0.17498257756233215, -0.0380425862967968, -0.16226062178611755, -0.024421390146017075, -0.003398602595552802, 0.23985105752944946, 0.12796829640865326, -0.0359804630279541, 0.0847780853509903, -0.12047212570905685, 0.03631019964814186, -0.08000975102186203, -0.07168827205896378, 0.09855544567108154, 0.20715507864952087, 0.1817805916070938, 0.14903570711612701, -0.06144016608595848, -0.1220887303352356, -0.09043068438768387, -0.35584089159965515, -0.11638665944337845, 0.07251246273517609, -0.08796827495098114, 0.0822184607386589, 0.08315891772508621, -0.18070586025714874, -0.17418554425239563, 0.1179795116186142, -0.15102647244930267, 0.10221584141254425, -0.1932433694601059, -0.040324773639440536, 0.010453552938997746, 0.06332138180732727, -0.5455071926116943, -0.04350128769874573, -0.12233519554138184, 0.2651291787624359, 0.14227139949798584, -0.07740679383277893, 0.12691976130008698, -0.11378001421689987, -0.09731879830360413, 0.07172177731990814, 0.1493665874004364, -0.022827595472335815, -0.03567913919687271, 0.26036590337753296, -0.11341884732246399, 0.08167698234319687, -0.017866084352135658, 0.050869956612586975, 0.20099328458309174, -0.08086641877889633, -0.15741045773029327, -0.07582597434520721, -0.008217433467507362, 0.16744083166122437, -0.11444766074419022, 0.08684218674898148, 0.06654603034257889, 0.18144778907299042, 0.02237808145582676, -0.06322762370109558, -0.21068093180656433, 0.09945724904537201, -0.21666020154953003, -0.2814067304134369, -0.09440981596708298, 0.007776462007313967, 0.13701248168945312, 0.11824658513069153, -0.1277696192264557, -0.042152777314186096, -0.37179481983184814, 0.017398405820131302, -0.0482931062579155, 0.13047096133232117, 0.043685149401426315, -0.15357092022895813, -0.012948590330779552, -0.08685299009084702, 0.014106321148574352, -0.055863190442323685, 0.08075273036956787, 0.19737128913402557, -0.12205459177494049, 0.047428373247385025, -0.15943174064159393, -0.17975075542926788, 0.13768616318702698, 0.04234945401549339, 0.15842297673225403, -0.22240562736988068, 0.1661439687013626, 0.30304768681526184, -0.08390776813030243, 0.0042848773300647736, 0.15015727281570435, -0.11737734079360962, 0.13630768656730652, -0.12410307675600052, 0.011821214109659195, -0.25713875889778137, -0.2831522524356842, 0.08704756945371628, 0.06215021014213562, 0.0987786203622818, -0.25354906916618347, -0.07482753694057465, -0.11538732796907425, -0.16493847966194153, -0.11301416158676147, 0.13891443610191345, -0.19084881246089935, 0.03571792319417, 0.1179112046957016, -0.15554316341876984, 0.1140197142958641, 0.06823426485061646, -0.3099583089351654, 0.11301273852586746, -0.12816882133483887, 0.39833128452301025, 0.061610765755176544, 0.03308257460594177, -0.2585602402687073, 0.09621641784906387, 0.024906640872359276, -0.27980366349220276, -0.02976781502366066, -0.003598066046833992, -0.1225179135799408, -0.023447291925549507, 0.014264640398323536, 0.14449526369571686, 0.03672497719526291, -0.0747370570898056, -0.050725504755973816, -0.293003648519516, 0.06462156772613525, -0.08635465055704117, -0.14745423197746277, 0.12042820453643799, -0.07568265497684479, 0.00308928731828928, -0.030657410621643066, -0.12902970612049103, 0.5273470282554626, 0.05400535464286804, 0.38109034299850464, 0.09261662513017654, -0.10302715003490448, 0.22791893780231476, 0.08874727785587311, 0.14398367702960968, -0.00869477353990078, 0.29740506410598755, -0.07631830871105194, -0.10309379547834396, -0.07131418585777283, 0.20371000468730927, -0.15658259391784668, -0.06664309650659561, 0.02446804568171501, -0.02308754250407219, 0.24664221704006195, 0.012484908103942871, -0.05398055538535118, -0.03378550708293915, -0.11516781896352768, -0.06263679265975952, 0.1692351996898651, -0.0663711354136467, -0.024431569501757622, -0.1748960018157959, -0.06923089176416397, -0.19453413784503937, -0.37565699219703674, -0.14565163850784302, 0.12209387123584747, 0.14936089515686035, -0.06335972994565964, -0.015180601738393307, 0.028187893331050873, -0.014583506621420383, -0.03850327059626579, 0.06779472529888153, -0.1394987553358078, 0.17586547136306763, -0.11619514226913452, -0.37005218863487244, 0.16601572930812836, -0.08824983984231949, 0.13629768788814545, 0.006896720267832279, -0.09042529761791229, 0.1753426045179367, -0.0058980463072657585, -0.13471658527851105, -0.05754304677248001, -0.19833718240261078, -0.007435367442667484, -0.2577594518661499, 0.06047554686665535, -0.10227928310632706, -0.011681335046887398, -0.0885571837425232, 0.13435916602611542, -0.022196967154741287, 0.10570532828569412, -0.08529458940029144, -0.17400196194648743, -0.029572924599051476, -0.005495761055499315, -0.23559056222438812, -0.13179464638233185, 0.006391475442796946, 0.21002358198165894, -0.020403781905770302, 0.07366491109132767, -0.05771816521883011, 0.06540161371231079, 0.17639361321926117, -0.23853373527526855, -0.00297598447650671, -0.04386105015873909, -0.10999052226543427, 0.013837611302733421, -0.052436813712120056, -0.056805048137903214, -0.021608131006360054, 0.029950380325317383, 0.2667050361633301, -0.10471314936876297, -0.002577158622443676, -0.13660350441932678, 0.22554700076580048, -0.16218727827072144, -0.17733164131641388, 0.19648528099060059, -0.17978516221046448, -0.14001627266407013, 0.1329951286315918, -0.3617568612098694, -0.05981289967894554, -0.14116276800632477, 0.017510930076241493, 0.08996100723743439, -0.15381069481372833, -0.06662086397409439, -0.08340345323085785, 0.1456066370010376, 0.05368060991168022, -0.06389636546373367, -0.08748456090688705, -0.07896658778190613, -0.14421150088310242, 0.040072470903396606, 0.06754949688911438, 0.13131025433540344, 0.10848598182201385, -0.1757035106420517, -0.1844811588525772, 0.1278771311044693, 0.11100897938013077, -0.0520380437374115, -0.1903976947069168, 0.029255909845232964, -0.0636567622423172, -0.037397827953100204, -0.2284281998872757, 0.11287984997034073, 0.1715438961982727, 0.15192650258541107, 0.20646828413009644, 0.01815628446638584, 0.09718664735555649, 0.0011696949368342757, -0.08252114057540894, -0.04146229848265648, -0.048852164298295975, -0.1489233821630478, -0.13813342154026031, -0.023358309641480446, 0.0935889258980751, -0.025173714384436607, 0.22849182784557343, -0.07221469283103943, -0.01121001411229372, -0.015773050487041473, 0.13960060477256775, -0.08443871885538101, 0.17977018654346466, -0.023670511320233345, 0.23471949994564056, 0.10110407322645187, 0.003749811789020896, -0.18079644441604614, -0.025596745312213898, 0.2965763509273529, 0.050817444920539856, 0.14829644560813904, -0.04470912739634514, -0.1829850673675537, -0.034241218119859695, -0.05214979872107506, -0.19993503391742706, -0.011196520179510117, 0.0851520374417305, -0.342894971370697, 0.35758695006370544, -0.07238034904003143, -0.17229220271110535, -0.28731295466423035, -0.07055113464593887, 0.09826672822237015, 0.1044737696647644, 0.09985735267400742, -0.28697147965431213, 0.1722848266363144, -0.010251271538436413, 0.14539015293121338, 0.17174556851387024, -0.08831475675106049, 0.21993066370487213, -0.0006180958589538932, 0.07404850423336029, 0.09258989989757538, -0.021636873483657837, 0.28415271639823914, -0.17769847810268402, 0.16564857959747314, 0.1687757819890976, 0.18637283146381378, -0.05157635360956192, 0.06237367168068886, 0.0008644218905828893, 0.056895822286605835, -0.06747881323099136, -0.08963850140571594, -0.24764342606067657, 0.16261768341064453, 0.014703215099871159, -0.07999926060438156, 0.005064604803919792, -0.18098604679107666, -0.07646089047193527, -0.38207629323005676, 0.16826091706752777, 0.047921352088451385, 0.08799181133508682, -0.07672903686761856, 0.13151071965694427, -0.053670573979616165, -0.17415976524353027, 0.11588162183761597, -0.0714774802327156, 0.6230029463768005, 0.057120416313409805, -0.07180068641901016, -0.13238592445850372, -0.04520726203918457, -0.12679477035999298, 0.3211076855659485, -0.09509316086769104, 0.06415031105279922, 0.21460914611816406, -0.06209998205304146, 0.08666134625673294, 0.21020562946796417, -0.045726384967565536, 0.18373732268810272, 0.18122424185276031, 0.15296785533428192, 0.2705583870410919, -0.22641615569591522, 0.05183066427707672, 0.22546760737895966, 0.1995019018650055, 0.020047685131430626, -0.2167135626077652, 0.05515225604176521, -0.09418021142482758, 0.008995716460049152, 0.23149579763412476, -0.11943319439888, -0.15574795007705688, -0.27867716550827026, -0.2625066041946411, 0.22289377450942993, -0.1254066377878189, 0.0325724259018898, 0.32615554332733154, 0.1521252691745758, -0.04713072255253792, -0.3618161082267761, -0.09172850847244263, 0.03246523067355156, 0.21678124368190765, 0.2820168733596802, -0.01416602823883295, -0.04743250086903572, 0.2610895335674286, 0.22328031063079834, 0.019367191940546036, 0.32598260045051575, -0.15260055661201477, -0.1297147423028946, 0.20952177047729492, -0.026942789554595947, -0.1371023952960968, 0.166145458817482, 0.12231980264186859, -0.18026569485664368, 0.3861442804336548, -0.047968581318855286, -0.1734156459569931, -0.06959383934736252, -0.038020819425582886, -0.1319253146648407, -0.22115342319011688, -0.10379783064126968, 0.24748213589191437, -0.019010933116078377, -0.06084132194519043, 0.1126263216137886, 0.059526801109313965, 0.058923836797475815, -0.18413737416267395, 0.23058046400547028, 0.02877340279519558, -0.06219261512160301, 0.08266312628984451, 0.032313596457242966, -0.2778996527194977, 0.07977766543626785, -0.24734626710414886, 0.23259900510311127, 0.0327642522752285, -0.03688788041472435, -0.05554458871483803, 0.057819899171590805, 0.14890235662460327, -0.3615707457065582, -0.018800972029566765, 0.09092355519533157, 0.29372861981391907, -0.0025391599629074335, 0.1976511925458908, -0.39197611808776855, 0.1255330890417099, 0.18747322261333466, -0.174835205078125, 0.10312556475400925, 0.0636475682258606, -0.13509845733642578, -0.1249191164970398, 0.031159857288002968, 0.10112351924180984, 0.06542492657899857, 0.04424484074115753, -0.029957951977849007, 0.3640342056751251, 0.007174004800617695, -0.0979824811220169, 0.07781420648097992, 0.15141962468624115, 0.1252211034297943, -0.044855996966362, -0.005763612221926451, 0.23647597432136536, 0.005508055444806814, 0.04021242633461952, 0.12560051679611206, 0.15672597289085388, 0.031923070549964905, -0.09466132521629333, -0.043928030878305435, -0.3021532893180847, 0.235703706741333, 0.1325596123933792, 0.10235334932804108, -0.19205135107040405, 0.08136316388845444, 0.03085736185312271, 0.09403292834758759, -0.08613193780183792, 0.08837194740772247, 0.08458422124385834, 0.0050879791378974915, -0.08322827517986298, 0.07086025178432465, -0.09411711245775223, -0.16407816112041473, 0.054246000945568085, 0.02617243118584156, -0.035702768713235855, 0.05189156159758568, -0.006974167190492153, -0.18772397935390472, 0.03251517564058304, 0.2513546943664551, -0.22950397431850433, 0.15723146498203278, -0.010402703657746315, 0.26364782452583313, -0.358495831489563, 0.05645415931940079, -0.16864176094532013, 0.0006259288638830185, 0.1061183363199234, -0.18799039721488953, 0.08955945074558258, 0.02127593755722046, -0.12496798485517502, 0.1503957062959671, -0.06276998668909073, 0.07512939721345901, 0.16884367167949677, -0.10591650754213333, -0.02862798422574997, 0.1272815316915512, -0.07070808857679367, 0.014180406928062439, -0.26219141483306885, -0.04827520623803139, -0.08982712030410767, 0.08370992541313171, -0.0799211859703064, -0.20039719343185425, 0.0838417038321495, 0.5849515199661255, -0.04581758752465248, -0.34201768040657043, 0.44594714045524597, 0.0995611622929573, -0.2073410451412201, 0.2833385467529297, -0.006474938243627548, 0.1668718308210373, 0.19302740693092346, -0.10372170060873032, -0.18076872825622559, 0.10856575518846512, 0.03241429477930069, 0.16920308768749237, -0.21967652440071106, 0.0088500389829278, 0.11952375620603561, 0.13333448767662048, -0.1882827877998352, 0.047361038625240326, -0.2833457887172699, -0.0345107726752758, -0.04047626256942749, -0.0942966490983963, 0.12315782159566879, 0.048432592302560806, -0.1318209171295166, -0.07260718941688538, -0.005543151870369911, -0.3423549234867096, 0.07277596741914749, -0.1311858743429184, 0.23295466601848602, 0.03725171834230423, -0.08747667819261551, -0.01705245114862919, 0.1849806010723114, 0.050816603004932404, 0.15898077189922333, 0.17044466733932495, 0.15917663276195526, -0.03069181926548481, 0.04304193705320358, -0.08724948763847351, -0.09564048796892166, -0.13865646719932556, 0.09108032286167145, -0.047783125191926956, 0.21020786464214325, -0.05236535519361496, -0.38203486800193787, -0.17580504715442657, -0.04873717203736305, 0.062393300235271454, -0.13019472360610962, 0.20324333012104034, -0.10502681881189346, 0.10658255219459534, -0.05425769463181496, -0.19576674699783325, -0.03924117609858513, 0.13012363016605377, -0.30411630868911743, 0.10608629882335663, 0.2117445021867752, -0.17128197848796844, 0.03903020918369293, 0.013084279373288155, 0.26267051696777344, -0.3537640869617462, 0.10985637456178665, -0.239111065864563, -0.09387616068124771, -0.07885735481977463, -0.2417575865983963, 0.10709970444440842, 0.17346078157424927, 0.11483077704906464, 0.10432625561952591, 0.12224983423948288, 0.1907627135515213, 0.14353340864181519, -0.045536190271377563, -0.1801188737154007, -0.06469548493623734, 0.10711202770471573, -0.15091203153133392, 0.22238728404045105, 0.06792858988046646, -0.05930274352431297, -0.133990079164505, 0.09146823734045029, 0.2569667398929596, -0.07204079627990723, -0.1377917379140854, 0.03621530532836914, 0.0674266368150711, -0.042985640466213226, 0.03290804475545883, 0.6121909618377686, 0.3505287766456604, 0.5018578171730042, -0.8029717206954956, -0.6623748540878296, -0.06929309666156769, 0.2188975214958191, -0.05308925732970238, 0.5765187740325928, 0.3009667992591858, -0.8309110999107361, 0.5040841698646545, -0.16880328953266144, -0.6401348114013672, -0.09371015429496765, -0.1650117188692093, -0.08124195039272308, -0.3075208067893982, 0.37580907344818115, -0.39024269580841064, 0.09092450886964798, 0.371974915266037, -0.16851957142353058, -0.1751030683517456, -0.1644156128168106, 0.14524835348129272, -0.24551746249198914, 0.10078567266464233, 0.0536336749792099, -0.028366995975375175, 0.09592786431312561, 0.09381525963544846, -0.6936511397361755, -0.24959731101989746, 0.14925917983055115, 0.35477757453918457, 0.11846251785755157, 0.1273689866065979, 0.6746999025344849, -0.1834656298160553, -0.2944096326828003, 0.026671765372157097, 0.28505632281303406, -0.06963007897138596, 0.02426929585635662, -0.16985119879245758, 0.6922299861907959, -0.3378777801990509, -0.042934637516736984, 0.22609230875968933, -0.37691226601600647, 0.02817213162779808, -0.06660840660333633, -0.5199182033538818, -0.08326414972543716, 0.09446975588798523, 0.2433808445930481, -0.10416916757822037, -0.07957681268453598, -0.31841909885406494, -0.05869568511843681, 0.0497196689248085, -0.0881536677479744, 0.1741846352815628, -0.24387666583061218, -0.014465851709246635, -0.35616534948349, 0.33832937479019165, 0.35397955775260925, 0.43026524782180786, 0.18911334872245789, 0.06735078245401382, -0.21154408156871796, -0.19496126472949982, 0.002394619630649686, -0.20597857236862183, 0.1832585632801056, 0.290991872549057, -0.008085533045232296, -0.04959932342171669, 0.2263202965259552, -0.061470936983823776, -0.06382046639919281, 0.2210235297679901, 0.23325730860233307, 0.0802452489733696, 0.11687716096639633, -0.2601547837257385, 0.1699371486902237, 0.3602331578731537, -0.0072300066240131855, -0.13920532166957855, -0.37402015924453735, -0.08975210785865784, -0.035290539264678955, 0.09137533605098724, -0.28107133507728577, 0.19199886918067932, 0.3044157922267914, 0.0724741667509079, -0.42732810974121094, -0.026624754071235657, 0.059798818081617355, 0.04819680005311966, 0.3028377592563629, -0.021820249035954475, 0.09141767770051956, 0.29680734872817993, 0.029938790947198868, 0.07644384354352951, -0.35962533950805664, -0.04960515722632408, -0.17218124866485596, -0.18737000226974487, -0.11589278280735016, -0.020032770931720734, -0.15047456324100494, -0.1867249310016632, 0.19189304113388062, 0.17118333280086517, -0.19239720702171326, -0.001308912760578096, 0.13325969874858856, 0.03127508610486984, 0.18929357826709747, 0.11587154865264893, 0.09060786664485931, -0.22463960945606232, -0.24909982085227966, 0.11468204855918884, -0.09792158752679825, 0.19135859608650208, 0.11629148572683334, -0.35347315669059753, 0.12591631710529327, 0.2436877340078354, -0.0025779486168175936, 0.033603210002183914, 0.20414632558822632, 0.07763657718896866, 0.013180316425859928, 0.08566191047430038, 0.20626921951770782, -0.18169215321540833, -0.22608305513858795, 0.0594368614256382, -0.06754644960165024, 0.15947607159614563, 0.4100833833217621, 0.1762382537126541, -0.050346456468105316, -0.27410414814949036, -0.04184761643409729, 0.09495548903942108, -0.00539263803511858, -0.412722110748291, 0.25265321135520935, -0.003914942964911461, 0.04215066134929657, 0.11033806949853897, -0.1633356809616089, 0.23066380620002747, 0.017511269077658653, 0.3827105462551117, -0.07998470962047577, 0.07958700507879257, 0.30751708149909973, -0.13499613106250763, -0.2259225845336914, -0.16239279508590698, 0.20047399401664734, -0.0823630541563034, 0.2721359431743622, -0.1230890080332756, 0.2750258147716522, -0.17478246986865997, 0.008371733129024506, 0.3145022392272949, -0.39313745498657227, 0.31954434514045715, -0.06339345872402191, -0.18004408478736877, 0.14319521188735962, -0.2269711047410965, 0.28332534432411194, 0.031227966770529747, -0.23255658149719238, -0.3852120637893677, -0.23042325675487518, -0.1467297524213791, -0.0682038962841034, 0.12608112394809723, 0.3274064064025879, 0.41520971059799194, -0.07443846017122269, -0.0008239276940003037, 0.035599492490291595, -0.16923443973064423, 0.15764009952545166, -0.15967179834842682, -0.1442049741744995, 0.08992645889520645, 0.14786791801452637, -0.11362011730670929, -0.30401790142059326, -0.006970121990889311, -0.1699637770652771, 0.2357572764158249, 0.6298826932907104, 0.2643255293369293, 0.22131209075450897, 0.13506431877613068, -0.0860433578491211, 0.3524094223976135, -0.3318019509315491, 0.03145337849855423, -0.01924251951277256, -0.022694362327456474, -0.5656833052635193, -0.12828557193279266, -0.49376270174980164, 0.009367940947413445, -0.15186074376106262, 0.33106353878974915, 0.15386351943016052, 0.20927584171295166, -0.031137602403759956, 0.4775322377681732, 0.20333173871040344, -0.034735724329948425, -0.09179452061653137, -0.16055306792259216, 0.11914476752281189, 0.36604976654052734, -0.05936127528548241, -0.5735683441162109, -0.3786104619503021, -0.34522953629493713, -0.22862845659255981, 0.2416413277387619, 0.4111167788505554, -0.16478750109672546, 0.031794026494026184, 0.10269470512866974, -0.1455633044242859, -0.22617675364017487, -0.005479551386088133, -0.2733285129070282, -0.2037971317768097, -0.010041306726634502, -0.07149220257997513, 0.0650506541132927, -0.01563112810254097, -0.0819147378206253, -0.3133232295513153, 0.0010845279321074486, -0.13064809143543243, 0.1169375330209732, -0.23242150247097015, -0.3632991313934326, -0.34953150153160095, -0.29606786370277405, -0.01791858673095703, 0.16158632934093475, -0.02796599641442299, -0.0013983531389385462, -0.31793707609176636, 0.16611874103546143, 0.03340492025017738, -0.007050265558063984, 0.3741639256477356, -0.013762512244284153, -0.21011394262313843, -0.250980406999588, 0.056192778050899506, -0.08969961106777191, -0.08701422065496445, 0.0224123727530241, -0.017920352518558502, 0.007862605154514313, -0.24802157282829285, 0.26825517416000366, 0.0011565441964194179, 0.21093901991844177, 0.10822657495737076, -0.15449883043766022, 0.061189308762550354, 0.04194696992635727, 0.07216057926416397, -0.26987963914871216, -0.017576903104782104, -0.18172428011894226, 0.14921411871910095, -0.048932839184999466, -0.04145929962396622, 0.3934515118598938, -0.05254529416561127, -0.16213950514793396, -0.009414548985660076, 0.003969220910221338, 0.001744787092320621, 0.10162894427776337, -0.06567936390638351, 0.20405839383602142, -0.08867531269788742, 0.06213570013642311, 0.0019086217507719994, 0.054936978965997696, 0.13605697453022003, 0.16229794919490814, 0.2980421483516693, -0.06385161727666855, -0.141669362783432, -0.03683264181017876, 0.1311485767364502, 0.02772657759487629, -0.12825655937194824, 0.0077403634786605835, -0.025292066857218742, 0.3143189549446106, -0.04362345486879349, 0.17481644451618195, 0.022760646417737007, -0.35309815406799316, 0.03374692052602768, 0.2168019860982895, 0.1491539180278778, -0.2522567808628082, 0.21106617152690887, 0.028786053881049156, 0.09982801228761673, -0.28308364748954773, -0.08722531050443649, 0.0015431852079927921, 0.046228498220443726, -0.021404914557933807, -0.0927269384264946, 0.01800096035003662, 0.013186004012823105, 0.0759306326508522, 0.0020556352101266384, -0.10453289747238159, -0.18631505966186523, -0.23054634034633636, -0.06890301406383514, -0.18843334913253784, 0.2032095044851303, -0.1383274495601654, 0.1300998479127884, -0.03922666609287262, -0.1373317837715149, 0.27297037839889526, -0.16922420263290405, 0.20268654823303223, -0.18822236359119415, 0.18317998945713043, 0.0662919133901596, 0.011628146283328533, -0.25341176986694336, -0.1869380623102188, 0.1976335197687149, 0.19724659621715546, -0.153096005320549, -0.02963857725262642, 0.0490025170147419, -0.04577089101076126, 0.008267760276794434, -0.25621116161346436, 0.022747058421373367, -0.21605010330677032, -0.38460367918014526, -0.030416525900363922, -0.387347936630249, -0.2084978073835373, 0.0864608883857727, 0.06540412455797195, -0.04597734659910202, -0.20326989889144897, -0.09503402560949326, -0.23299050331115723, 0.29714149236679077, -0.13331662118434906, -0.1319105178117752, 0.07120134681463242, -0.055986471474170685, -0.23960013687610626, 0.034350354224443436, -0.008321677334606647, 0.2187802940607071, -0.048421137034893036, -0.06350051611661911, 0.15603545308113098, 0.009540284052491188, -0.17279063165187836, 0.1438925713300705, -0.1493716537952423, -0.08709756284952164, -0.23756800591945648, -0.09762205928564072, -0.002095667412504554, -0.04349939152598381, 0.1611943393945694, -0.14440888166427612, -0.0075856465846300125, -0.22589416801929474, -0.051056087017059326, 0.013168014585971832, -0.11571954190731049, -0.20608249306678772, -0.034830737859010696, -0.12263569980859756, 0.09436696767807007, 0.008557014167308807, -0.059968750923871994, -0.005507792811840773, 0.2759718596935272, 0.06458668410778046, 0.07056571543216705, 0.1742008924484253, 0.178591787815094, 0.09261015057563782, 0.05925103649497032, 0.10218843817710876, -0.10202423483133316, 0.3439374268054962, 0.038968123495578766, 0.15954701602458954, 0.08413699269294739, 0.15033315122127533, 0.16821804642677307, -0.2708393335342407, 0.07055972516536713, -0.08412783592939377, -0.33068880438804626, 0.014724764972925186, -0.04562186822295189, 0.04101821780204773, -0.06371700763702393, 0.09742404520511627, 0.5710058212280273, 0.07802675664424896, 0.022274017333984375, -0.11209817230701447, 0.13587364554405212, 0.036300744861364365, -0.06537404656410217, -0.08524966239929199, -0.09122932702302933, -0.2123689353466034, 0.061615198850631714, 0.10334299504756927, -0.05070909857749939, 0.14492051303386688, 0.16977305710315704, 0.08200870454311371, -0.15272504091262817, -0.3657701909542084, 0.048042748123407364, 0.12771224975585938, -0.14989285171031952, 0.12176486104726791, 0.08388998359441757, -0.05358605086803436, 0.43033450841903687, 0.06730271875858307, -0.08938511461019516, 0.17243602871894836, -0.008783774450421333, 0.14397862553596497, 0.2647067606449127, -0.06954372674226761, -0.3132725954055786, 0.44873863458633423, -0.07068692147731781, 0.02195856161415577, 0.024381954222917557, 0.04076111689209938, 0.25447168946266174, -0.02802242338657379, -0.049547940492630005, -0.13846610486507416, 0.3179691433906555, 0.018273428082466125, -0.10363536328077316, 0.03910030797123909, 0.09037377685308456, 0.014772756956517696, -0.19593144953250885, 0.17405526340007782, -0.06201641634106636, 0.28553667664527893, 0.12748576700687408, -0.0578460730612278, -0.03930990397930145, 0.18681563436985016, 0.09283807873725891, -0.35272324085235596, -0.12346995621919632, 0.12537768483161926, -0.008813717402517796, -0.046299047768116, -0.11799986660480499, -0.19123977422714233, 0.23261424899101257, 0.055111564695835114, -0.09501947462558746, 0.18495893478393555, 0.20678994059562683, 0.08804754167795181, 0.005307941231876612, -0.1564343273639679, -0.4435482919216156, -0.08236260712146759, 0.28269481658935547, -0.14642466604709625, -0.1036921888589859, -0.1784813553094864, -0.03996650502085686, -0.09027044475078583, 0.1400204747915268, -0.2086668312549591, -0.09879240393638611, 0.20406226813793182, -0.1299324482679367, 0.06124800816178322, -0.09147439897060394, 0.06718629598617554, 0.07871870696544647, -0.0800306499004364, 0.12687382102012634, -0.22671101987361908, -0.14148493111133575, -0.09624549001455307, 0.24980950355529785, 0.012156104668974876, -0.19304043054580688, 0.04932393878698349, -0.04792064428329468, -0.14265768229961395, 0.002462016884237528, -0.2610710859298706, -0.06874044984579086, 0.040364544838666916, -0.1725035011768341, 0.2743033170700073, 0.04596799612045288, 0.2131274789571762, -0.12545298039913177, 0.0029762943740934134, -0.3330713212490082, -0.01492234319448471, 0.10659705102443695, 0.020109495148062706, -0.16812367737293243, -0.03701603785157204, 0.06882859021425247, 0.03132811188697815, -0.035474859178066254, 0.1972726285457611, -0.07176884263753891, -0.023664331063628197, -0.06681260466575623, 0.16129659116268158, 0.01863562874495983, 0.0511808805167675, -0.06767722964286804, -0.42363566160202026, 0.04681754484772682, -0.42614462971687317, -0.03506767749786377, -0.02137335203588009, 0.28477996587753296, -0.30611762404441833, -0.03793402016162872, 0.10629390925168991, 0.13127347826957703, -0.013482998125255108, -0.15374894440174103, 0.0642925277352333, -0.020764773711562157, 0.03539029136300087, -0.2151551991701126, 0.020185349509119987, -0.15403464436531067, -0.015048852190375328, -0.24489820003509521, 0.06866206973791122, 0.0937948077917099, 0.289540559053421, 0.2928681969642639, -0.167729452252388, 0.017489109188318253, 0.140764981508255, 0.02654583938419819, -0.14392948150634766, 0.10009954869747162, 0.06516900658607483, 0.18071399629116058, -0.025506850332021713, -0.17014172673225403, 0.021550465375185013, 0.19898755848407745, 0.02228456921875477, -0.15288671851158142, 0.043745189905166626, -0.0988290086388588, -0.11287813633680344, 0.2153075635433197, -0.043761447072029114, 0.051174987107515335, -0.1962057203054428, -0.008355461061000824, -0.08659233897924423, 0.009029701352119446, 0.11566130816936493, 